{"learner":{"attributes":{"best_iteration":"99","best_score":"0.5542621652584815"},"feature_names":[],"feature_types":[],"gradient_booster":{"model":{"gbtree_model_param":{"num_parallel_tree":"1","num_trees":"100"},"iteration_indptr":[0,1,2,3,4,5,6,7,8,9,10,11,12,13,14,15,16,17,18,19,20,21,22,23,24,25,26,27,28,29,30,31,32,33,34,35,36,37,38,39,40,41,42,43,44,45,46,47,48,49,50,51,52,53,54,55,56,57,58,59,60,61,62,63,64,65,66,67,68,69,70,71,72,73,74,75,76,77,78,79,80,81,82,83,84,85,86,87,88,89,90,91,92,93,94,95,96,97,98,99,100],"tree_info":[0,0,0,0,0,0,0,0,0,0,0,0,0,0,0,0,0,0,0,0,0,0,0,0,0,0,0,0,0,0,0,0,0,0,0,0,0,0,0,0,0,0,0,0,0,0,0,0,0,0,0,0,0,0,0,0,0,0,0,0,0,0,0,0,0,0,0,0,0,0,0,0,0,0,0,0,0,0,0,0,0,0,0,0,0,0,0,0,0,0,0,0,0,0,0,0,0,0,0,0],"trees":[{"base_weights":[2.9891712E-6,1.8215951E-1,-7.842893E-2,1.0704165E-1,3.7894714E-1,-3.7422642E-2,-2.5244394E-1,1.8644723E-1,-5.3295244E-2,5.7935935E-1,1.82678E-1,-1.496187E-1,8.533326E-2,-3.3293837E-1,2.1495916E-2,-1.0682943E0,2.086224E-1,-7.688103E-2,1.1192328E-1,-2.2073822E-1,6.6774017E-1,-5.794771E-2,5.108776E-1,4.19417E-1,-1.7534962E-1,-1.315221E-2,2.1701948E-1,-2.927024E-1,-9.4662267E-1,1.0829283E0,-8.457695E-2,-1.5552737E-1,-2.2261464E-3,3.2687157E-1,4.5487355E-2,3.5904905E-1,-1.3916367E-1,9.751643E-1,-8.2913476E-1,7.028235E-1,-8.201688E-2,-3.21719E-1,5.972501E-1,-2.1222284E-1,7.3473394E-1,9.900009E-1,4.4265516E-2,-1.0780972E0,-1.609453E-1,2.2182333E-1,-1.1872619E-1,3.1778622E-1,-5.9623905E-2,-3.209245E-1,7.4115586E-1,-1.7151468E-1,-1.4585018E0,1.6060105E-2,1.3735974E-1,2.8388497E-1,-2.7716404E-1,-9.580122E-2,3.496432E-2,-7.620277E-2,1.0557304E-2,6.8346135E-2,-2.0104865E-2,-4.5133706E-2,-1.4735142E-3,1.2517036E-1,2.0370599E-2,-1.5253584E-1,-2.5972512E-3,5.7089277E-2,1.1374801E-1,-3.2383048E-3,-1.14181936E-1,-8.201688E-2,7.814048E-2,6.4231485E-2,-5.7493456E-2,-5.953942E-2,8.622412E-2,-1.7699368E-2,1.2702712E-1,-1.1184799E-1,4.607265E-2,-1.4236273E-1,1.3075801E-2,-2.3849487E-2,-5.2837515E-3,1.9160323E-3,4.9267553E-2,-4.7730696E-3,-4.0177952E-2,-3.301302E-2,3.4942403E-2,-5.939545E-2,8.386008E-3,-3.3609413E-2,1.1801658E-1,1.3076499E-1,-3.5565674E-2,-6.268486E-2,6.445291E-2,-2.408073E-2,-1.629328E-1,4.6242557E-2,-8.811654E-2,-4.9403064E-2,2.6545182E-2],"categories":[],"categories_nodes":[],"categories_segments":[],"categories_sizes":[],"default_left":[0,0,0,0,0,0,0,0,0,0,0,0,0,0,0,0,0,0,0,0,0,0,0,0,0,0,0,0,0,0,0,0,0,0,0,0,0,0,0,0,0,0,0,0,0,0,0,0,0,0,0,0,0,0,0,0,0,0,0,0,0,0,0,0,0,0,0,0,0,0,0,0,0,0,0,0,0,0,0,0,0,0,0,0,0,0,0,0,0,0,0,0,0,0,0,0,0,0,0,0,0,0,0,0,0,0,0,0,0,0,0],"id":0,"left_children":[1,3,5,7,9,11,13,15,17,19,21,23,25,27,29,31,33,35,-1,37,39,41,43,45,47,49,51,53,55,57,59,-1,-1,61,63,65,67,69,71,73,-1,75,77,79,81,83,85,87,89,91,93,95,97,99,101,103,105,-1,-1,107,109,-1,-1,-1,-1,-1,-1,-1,-1,-1,-1,-1,-1,-1,-1,-1,-1,-1,-1,-1,-1,-1,-1,-1,-1,-1,-1,-1,-1,-1,-1,-1,-1,-1,-1,-1,-1,-1,-1,-1,-1,-1,-1,-1,-1,-1,-1,-1,-1,-1,-1],"loss_changes":[3.4250416E1,1.06255665E1,1.1948456E1,6.6762805E0,7.7196045E0,1.8707481E1,7.050375E0,9.972511E0,4.903595E0,7.075386E0,8.082654E0,1.046268E1,8.417511E0,5.8201942E0,8.36462E0,3.1483603E0,6.6433554E0,4.7118387E0,0E0,8.446238E0,5.194931E0,1.0515454E1,7.1549273E0,6.5901055E0,8.663132E0,9.258288E0,7.7594824E0,7.041647E0,5.6005573E0,1.588592E0,4.884971E0,0E0,0E0,6.1851196E0,7.17455E0,4.0883884E0,5.8570614E0,5.98196E-1,4.1532226E0,4.3382263E0,0E0,1.0222787E1,5.2076087E0,3.7778845E0,6.1510773E0,4.23046E0,1.0076487E1,4.5708504E0,5.6050205E0,6.3425217E0,5.1539803E0,4.2907963E0,5.7983203E0,5.581293E0,4.502817E0,3.0044072E0,1.4273205E0,0E0,0E0,5.346362E0,5.425085E0,0E0,0E0,0E0,0E0,0E0,0E0,0E0,0E0,0E0,0E0,0E0,0E0,0E0,0E0,0E0,0E0,0E0,0E0,0E0,0E0,0E0,0E0,0E0,0E0,0E0,0E0,0E0,0E0,0E0,0E0,0E0,0E0,0E0,0E0,0E0,0E0,0E0,0E0,0E0,0E0,0E0,0E0,0E0,0E0,0E0,0E0,0E0,0E0,0E0,0E0],"parents":[2147483647,0,0,1,1,2,2,3,3,4,4,5,5,6,6,7,7,8,8,9,9,10,10,11,11,12,12,13,13,14,14,15,15,16,16,17,17,19,19,20,20,21,21,22,22,23,23,24,24,25,25,26,26,27,27,28,28,29,29,30,30,33,33,34,34,35,35,36,36,37,37,38,38,39,39,41,41,42,42,43,43,44,44,45,45,46,46,47,47,48,48,49,49,50,50,51,51,52,52,53,53,54,54,55,55,56,56,59,59,60,60],"right_children":[2,4,6,8,10,12,14,16,18,20,22,24,26,28,30,32,34,36,-1,38,40,42,44,46,48,50,52,54,56,58,60,-1,-1,62,64,66,68,70,72,74,-1,76,78,80,82,84,86,88,90,92,94,96,98,100,102,104,106,-1,-1,108,110,-1,-1,-1,-1,-1,-1,-1,-1,-1,-1,-1,-1,-1,-1,-1,-1,-1,-1,-1,-1,-1,-1,-1,-1,-1,-1,-1,-1,-1,-1,-1,-1,-1,-1,-1,-1,-1,-1,-1,-1,-1,-1,-1,-1,-1,-1,-1,-1,-1,-1],"split_conditions":[-6.1884254E-1,-1.8497884E-2,1.1439135E0,-4.3994495E-1,-1.029865E0,2.534188E-1,1.1445999E0,-8.5402864E-1,1.0912992E-1,-1.9472104E0,-7.7205324E-1,-1.794095E0,5.134421E-1,8.98855E-1,-1.0066406E0,-8.6983484E-1,2.0750886E-1,-1.6015046E0,1.1192328E-1,1.3818842E-1,2.5744963E0,-5.813629E-1,-6.7302835E-1,-3.7139484E-1,-6.082692E-1,3.303704E-1,1.3167677E0,8.463302E-1,-3.6504534E-1,-7.54464E-3,1.7043054E0,-1.5552737E-1,-2.2261464E-3,-2.4018018E0,-2.019564E-1,-8.305817E-1,-7.221003E-1,-1.09348E0,-4.4237965E-1,8.505415E-1,-8.201688E-2,-8.249998E-1,-1.2191415E0,-7.5447536E-1,-1.9444288E-1,-2.2649103E-1,-5.262323E-1,4.4399372E-1,-1.6317557E-1,-3.4372538E-1,6.2638724E-1,-9.134722E-1,-7.594222E-1,2.3374698E0,-2.921904E-1,6.988181E-1,2.7355704E-1,1.6060105E-2,1.3735974E-1,2.3128092E0,7.823973E-2,-9.580122E-2,3.496432E-2,-7.620277E-2,1.0557304E-2,6.8346135E-2,-2.0104865E-2,-4.5133706E-2,-1.4735142E-3,1.2517036E-1,2.0370599E-2,-1.5253584E-1,-2.5972512E-3,5.7089277E-2,1.1374801E-1,-3.2383048E-3,-1.14181936E-1,-8.201688E-2,7.814048E-2,6.4231485E-2,-5.7493456E-2,-5.953942E-2,8.622412E-2,-1.7699368E-2,1.2702712E-1,-1.1184799E-1,4.607265E-2,-1.4236273E-1,1.3075801E-2,-2.3849487E-2,-5.2837515E-3,1.9160323E-3,4.9267553E-2,-4.7730696E-3,-4.0177952E-2,-3.301302E-2,3.4942403E-2,-5.939545E-2,8.386008E-3,-3.3609413E-2,1.1801658E-1,1.3076499E-1,-3.5565674E-2,-6.268486E-2,6.445291E-2,-2.408073E-2,-1.629328E-1,4.6242557E-2,-8.811654E-2,-4.9403064E-2,2.6545182E-2],"split_indices":[14,4,14,4,14,2,1,1,5,14,14,8,5,1,11,2,7,2,0,4,13,5,1,2,14,14,2,1,9,4,1,0,0,2,12,5,13,2,11,10,0,14,9,2,3,1,4,11,11,1,13,9,8,8,10,5,3,0,0,3,6,0,0,0,0,0,0,0,0,0,0,0,0,0,0,0,0,0,0,0,0,0,0,0,0,0,0,0,0,0,0,0,0,0,0,0,0,0,0,0,0,0,0,0,0,0,0,0,0,0,0],"split_type":[0,0,0,0,0,0,0,0,0,0,0,0,0,0,0,0,0,0,0,0,0,0,0,0,0,0,0,0,0,0,0,0,0,0,0,0,0,0,0,0,0,0,0,0,0,0,0,0,0,0,0,0,0,0,0,0,0,0,0,0,0,0,0,0,0,0,0,0,0,0,0,0,0,0,0,0,0,0,0,0,0,0,0,0,0,0,0,0,0,0,0,0,0,0,0,0,0,0,0,0,0,0,0,0,0,0,0,0,0,0,0],"sum_hessian":[2.3953323E3,7.2054913E2,1.6747832E3,5.226043E2,1.9794482E2,1.356372E3,3.1841125E2,3.4940262E2,1.7320172E2,9.697297E1,1.00971855E2,7.085525E2,6.4781946E2,2.4593146E2,7.24798E1,5.248537E0,3.4415408E2,1.7070242E2,2.4993033E0,9.497353E0,8.747562E1,5.8733627E1,4.2238228E1,2.999164E1,6.7856085E2,3.7114655E2,2.7667288E2,2.3218529E2,1.3746168E1,5.748398E0,6.67314E1,3.2490945E0,1.9994427E0,1.9894455E2,1.4520952E2,2.0744219E1,1.499582E2,2.999164E0,6.498189E0,8.5976036E1,1.499582E0,4.2238228E1,1.6495401E1,9.997213E0,3.2241013E1,1.1246865E1,1.8744776E1,9.497353E0,6.6906354E2,1.14718025E2,2.5642853E2,2.026935E2,7.397938E1,2.2668681E2,5.4984674E0,5.998328E0,7.7478404E0,1.7495123E0,3.9988854E0,2.274366E1,4.398774E1,2.7492337E0,1.9619531E2,9.247422E0,1.359621E2,1.2996378E1,7.7478404E0,4.1988297E1,1.079699E2,1.7495123E0,1.2496517E0,2.999164E0,3.4990246E0,6.7731125E1,1.8244915E1,3.1991083E1,1.0247144E1,1.499582E0,1.499582E1,2.7492337E0,7.2479796E0,2.4993033E0,2.974171E1,2.249373E0,8.997492E0,4.498746E0,1.4246029E1,7.2479796E0,2.249373E0,3.888916E2,2.801719E2,6.623154E1,4.8486485E1,2.059426E2,5.0485928E1,8.997492E0,1.9369601E2,1.499582E1,5.898356E1,2.2518724E2,1.499582E0,3.4990246E0,1.9994427E0,3.9988854E0,1.9994427E0,1.2496517E0,6.498189E0,2.0244358E1,2.4993033E0,3.1491222E1,1.2496517E1],"tree_param":{"num_deleted":"0","num_feature":"15","num_nodes":"111","size_leaf_vector":"1"}},{"base_weights":[-9.073282E-5,1.6386257E-1,-7.063305E-2,9.6064836E-2,3.4174302E-1,-3.3794932E-2,-2.2696288E-1,1.0322915E-1,-1.2982579E-1,5.2355754E-1,1.6384971E-1,-1.3480859E-1,7.676736E-2,-1.0535226E0,-2.009782E-1,1.7504817E-1,-4.1660205E-2,5.9761816E-1,-3.5404348E-1,-8.734354E-3,5.420856E-1,3.7994558E-1,-1.5802258E-1,-1.181643E-2,1.9527586E-1,-1.5228777E-1,-1.1562143E-1,-2.751937E-1,4.9397506E-2,-9.4498354E-1,1.940368E-1,-6.3513234E-2,1.0431645E-1,4.7938496E-1,9.8662543E-1,-8.832479E-1,1.6711989E-1,-2.923488E-1,4.1915116E-1,1.6336012E-1,1.159786E0,9.041874E-1,3.6568217E-2,-9.8453283E-1,-1.448656E-1,2.0021953E-1,-1.0701446E-1,2.8626853E-1,-5.4344494E-2,9.0923116E-2,-1.19672455E-1,2.9314572E-2,-3.5399228E-1,5.455091E-1,-1.5518914E-1,-1.4402251E-1,1.6201375E-2,1.247945E-2,4.258636E-2,-2.5804434E-3,-6.853535E-2,7.54449E-2,8.4833065E-3,4.9038906E-2,1.4003497E-1,-2.2873709E-2,-1.2495939E-1,1.1355748E-1,-5.7217356E-2,-2.9241357E-3,-1.03908315E-1,-1.1576702E-2,7.6974295E-2,5.8950186E-2,-1.8908545E-2,1.4689922E-1,1.7378619E-2,-1.6471503E-2,1.1626371E-1,-1.0280415E-1,4.182073E-2,-1.3016587E-1,1.2172938E-2,5.241753E-3,-1.838003E-2,1.3325191E-2,9.5728986E-2,-1.54694235E-2,2.562961E-2,2.432398E-3,3.6143206E-2,2.421011E-2,-3.233352E-2,4.6829604E-2,-3.4351107E-2,-1.2450794E-1,-2.8584016E-2,9.634787E-2,-2.0397364E-3,-3.261876E-2,3.6656912E-2],"categories":[],"categories_nodes":[],"categories_segments":[],"categories_sizes":[],"default_left":[0,0,0,0,0,0,0,0,0,0,0,0,0,0,0,0,0,0,0,0,0,0,0,0,0,0,0,0,0,0,0,0,0,0,0,0,0,0,0,0,0,0,0,0,0,0,0,0,0,0,0,0,0,0,0,0,0,0,0,0,0,0,0,0,0,0,0,0,0,0,0,0,0,0,0,0,0,0,0,0,0,0,0,0,0,0,0,0,0,0,0,0,0,0,0,0,0,0,0,0,0],"id":1,"left_children":[1,3,5,7,9,11,13,15,-1,17,19,21,23,25,27,29,31,33,35,37,39,41,43,45,47,-1,49,51,53,55,57,59,-1,61,63,65,67,69,71,73,75,77,79,81,83,85,87,89,91,-1,-1,93,95,97,99,-1,-1,-1,-1,-1,-1,-1,-1,-1,-1,-1,-1,-1,-1,-1,-1,-1,-1,-1,-1,-1,-1,-1,-1,-1,-1,-1,-1,-1,-1,-1,-1,-1,-1,-1,-1,-1,-1,-1,-1,-1,-1,-1,-1,-1,-1],"loss_changes":[2.7716461E1,8.661304E0,9.641551E0,5.3620553E0,6.3361435E0,1.5167695E1,6.647398E0,5.435076E0,0E0,6.56419E0,6.650923E0,8.539117E0,6.811263E0,4.0050077E0,5.789917E0,7.6045027E0,4.1834946E0,3.689659E0,2.4186306E0,8.726313E0,7.2770624E0,5.5316377E0,7.248291E0,7.5324945E0,6.318491E0,0E0,5.796941E0,5.767601E0,7.384759E0,3.5158615E0,5.468004E0,3.9964576E0,0E0,7.6798267E0,3.4503326E0,7.319577E-1,4.222117E0,8.462291E0,5.466164E0,3.257914E0,3.3931828E0,3.5596943E0,8.442352E0,3.8341446E0,5.1574345E0,5.735631E0,4.499467E0,3.9983253E0,6.056608E0,0E0,0E0,8.384724E0,1.1224461E1,5.0391946E0,4.732442E0,0E0,0E0,0E0,0E0,0E0,0E0,0E0,0E0,0E0,0E0,0E0,0E0,0E0,0E0,0E0,0E0,0E0,0E0,0E0,0E0,0E0,0E0,0E0,0E0,0E0,0E0,0E0,0E0,0E0,0E0,0E0,0E0,0E0,0E0,0E0,0E0,0E0,0E0,0E0,0E0,0E0,0E0,0E0,0E0,0E0,0E0],"parents":[2147483647,0,0,1,1,2,2,3,3,4,4,5,5,6,6,7,7,9,9,10,10,11,11,12,12,13,13,14,14,15,15,16,16,17,17,18,18,19,19,20,20,21,21,22,22,23,23,24,24,26,26,27,27,28,28,29,29,30,30,31,31,33,33,34,34,35,35,36,36,37,37,38,38,39,39,40,40,41,41,42,42,43,43,44,44,45,45,46,46,47,47,48,48,51,51,52,52,53,53,54,54],"right_children":[2,4,6,8,10,12,14,16,-1,18,20,22,24,26,28,30,32,34,36,38,40,42,44,46,48,-1,50,52,54,56,58,60,-1,62,64,66,68,70,72,74,76,78,80,82,84,86,88,90,92,-1,-1,94,96,98,100,-1,-1,-1,-1,-1,-1,-1,-1,-1,-1,-1,-1,-1,-1,-1,-1,-1,-1,-1,-1,-1,-1,-1,-1,-1,-1,-1,-1,-1,-1,-1,-1,-1,-1,-1,-1,-1,-1,-1,-1,-1,-1,-1,-1,-1,-1],"split_conditions":[-6.1884254E-1,-1.8497884E-2,1.1439135E0,2.2849277E-1,-1.029865E0,2.534188E-1,3.034824E-1,-4.3994495E-1,-1.2982579E-1,2.1107526E0,-5.813629E-1,-1.794095E0,5.134421E-1,1.3206791E0,1.1445999E0,-8.5402864E-1,1.0912992E-1,8.505415E-1,1.0610937E-1,-7.7205324E-1,2.173838E-1,-3.7139484E-1,-6.082692E-1,3.303704E-1,1.3167677E0,-1.5228777E-1,-2.435001E-1,-5.049387E-1,6.853781E-1,-8.6983484E-1,8.3241284E-1,-6.764979E-2,1.0431645E-1,3.8439327E-1,-4.879549E-1,-9.396496E-1,1.7693391E-1,-8.249998E-1,-9.782485E-2,4.4706948E-2,2.3609787E-1,-2.2649103E-1,-5.262323E-1,4.4399372E-1,-7.590735E-1,1.6492969E0,1.7360615E0,-7.669336E-1,-1.7220698E-1,9.0923116E-2,-1.19672455E-1,6.5722567E-1,-4.3809772E-1,4.726213E-1,3.7876374E-1,-1.4402251E-1,1.6201375E-2,1.247945E-2,4.258636E-2,-2.5804434E-3,-6.853535E-2,7.54449E-2,8.4833065E-3,4.9038906E-2,1.4003497E-1,-2.2873709E-2,-1.2495939E-1,1.1355748E-1,-5.7217356E-2,-2.9241357E-3,-1.03908315E-1,-1.1576702E-2,7.6974295E-2,5.8950186E-2,-1.8908545E-2,1.4689922E-1,1.7378619E-2,-1.6471503E-2,1.1626371E-1,-1.0280415E-1,4.182073E-2,-1.3016587E-1,1.2172938E-2,5.241753E-3,-1.838003E-2,1.3325191E-2,9.5728986E-2,-1.54694235E-2,2.562961E-2,2.432398E-3,3.6143206E-2,2.421011E-2,-3.233352E-2,4.6829604E-2,-3.4351107E-2,-1.2450794E-1,-2.8584016E-2,9.634787E-2,-2.0397364E-3,-3.261876E-2,3.6656912E-2],"split_indices":[14,4,14,2,14,2,2,4,0,1,5,8,5,14,1,1,5,10,9,14,4,2,14,14,2,0,1,1,5,2,10,5,0,10,11,2,12,14,13,4,12,1,4,11,1,3,11,11,9,0,0,10,1,4,10,0,0,0,0,0,0,0,0,0,0,0,0,0,0,0,0,0,0,0,0,0,0,0,0,0,0,0,0,0,0,0,0,0,0,0,0,0,0,0,0,0,0,0,0,0,0],"split_type":[0,0,0,0,0,0,0,0,0,0,0,0,0,0,0,0,0,0,0,0,0,0,0,0,0,0,0,0,0,0,0,0,0,0,0,0,0,0,0,0,0,0,0,0,0,0,0,0,0,0,0,0,0,0,0,0,0,0,0,0,0,0,0,0,0,0,0,0,0,0,0,0,0,0,0,0,0,0,0,0,0,0,0,0,0,0,0,0,0,0,0,0,0,0,0,0,0,0,0,0,0],"sum_hessian":[2.3944465E3,7.1991315E2,1.6745333E3,5.223598E2,1.9755333E2,1.3561755E3,3.1835785E2,5.206108E2,1.7490422E0,9.673892E1,1.0081441E2,7.085759E2,6.475996E2,8.497961E0,3.098599E2,3.479367E2,1.7267406E2,8.950467E1,7.2342505E0,6.989784E1,3.0916563E1,2.991282E1,6.786631E2,3.7110388E2,2.7649573E2,5.2479935E0,3.249968E0,2.3893614E2,7.092373E1,4.9874845E0,3.4294922E2,1.701872E2,2.486849E0,7.0353935E1,1.9150738E1,3.2447128E0,3.9895377E0,4.222602E1,2.7671824E1,1.9949535E1,1.0967027E1,1.1192209E1,1.8720612E1,9.477304E0,6.691858E2,1.14646614E2,2.5645724E2,2.02524E2,7.397173E1,1.75E0,1.4999679E0,4.9248573E1,1.8968758E2,2.0221437E1,5.0702293E1,3.2379096E0,1.7495751E0,2.652595E2,7.768972E1,1.6143893E2,8.748267E0,4.0916565E1,2.9437366E1,9.700681E0,9.450057E0,1.7473267E0,1.497386E0,1.4950433E0,2.4944944E0,3.199273E1,1.0233292E1,1.1221035E1,1.6450788E1,8.726149E0,1.1223386E1,7.975946E0,2.991081E0,2.2498617E0,8.942348E0,4.493082E0,1.422753E1,7.2285185E0,2.248786E0,1.10241684E2,5.589441E2,1.06409996E2,8.236622E0,2.2721275E2,2.9244495E1,4.545101E1,1.57073E2,3.5237564E1,3.8734165E1,2.25E1,2.6748573E1,1.225E1,1.7743758E2,1.1226892E1,8.994546E0,3.8469364E1,1.2232929E1],"tree_param":{"num_deleted":"0","num_feature":"15","num_nodes":"101","size_leaf_vector":"1"}},{"base_weights":[-6.430566E-5,1.4795017E-1,-6.36931E-2,8.6185634E-2,3.1045723E-1,-3.8204372E-2,-2.5387007E-1,9.288483E-2,-1.216947E-1,4.7510207E-1,1.4953993E-1,-1.2605958E-1,5.1693E-2,-4.2827004E-3,-3.9636943E-1,-9.908575E-1,1.0106883E-1,5.4327947E-1,-3.3017075E-1,-5.90618E-1,2.3212597E-1,-1.044205E-1,-8.0460024E-1,2.4367243E-1,1.34994155E-2,-1.8097883E-1,5.1864624E-1,-4.7059533E-1,3.6554736E-1,-2.1705063E-2,-1.2636529E-1,2.6904246E-2,2.1366574E-1,-1.0542485E-1,5.9888136E-1,-8.2912177E-1,1.6236174E-1,6.282442E-1,-1.1040162E0,6.583062E-2,6.2414634E-1,4.3618172E-1,-1.2855174E-1,-1.1983813E0,-4.526703E-1,1.0237176E-1,5.9762E-1,2.3835495E-2,-7.69172E-1,-3.6807802E-1,3.1162974E-1,9.087815E-1,-8.467189E-2,3.867077E-1,-5.3603673E-1,-2.0407139E-1,6.8618435E-1,1.3291183E-2,-1.708896E-2,4.7424227E-2,3.8430025E-3,8.243423E-2,-7.4864015E-2,8.979905E-2,3.813077E-2,-1.916978E-2,-1.19824566E-1,1.07390754E-1,-5.3165134E-2,1.1468773E-1,-2.2723394E-2,-1.4731686E-1,-5.6009825E-2,-2.0308373E-2,4.6323787E-2,1.35505E-1,4.016396E-2,6.3685834E-2,-4.332517E-2,-9.048577E-2,-1.1660381E-2,-1.8307408E-2,-1.386161E-1,5.825782E-2,-7.3477834E-2,6.415112E-2,-1.2706987E-3,-1.9594412E-2,7.3063895E-2,-8.7880604E-2,3.1303365E-3,3.3669166E-2,-1.07556485E-1,4.917192E-2,-6.0331244E-2,-4.711033E-2,1.4246522E-1,-8.656341E-3,1.0670072E-1,4.828128E-2,-5.0098296E-2,-1.0178663E-1,9.536832E-2,-2.680847E-2,-7.174496E-2,1.2681039E-2,-6.64823E-2,8.9849345E-2,-2.3179647E-2],"categories":[],"categories_nodes":[],"categories_segments":[],"categories_sizes":[],"default_left":[0,0,0,0,0,0,0,0,0,0,0,0,0,0,0,0,0,0,0,0,0,0,0,0,0,0,0,0,0,0,0,0,0,0,0,0,0,0,0,0,0,0,0,0,0,0,0,0,0,0,0,0,0,0,0,0,0,0,0,0,0,0,0,0,0,0,0,0,0,0,0,0,0,0,0,0,0,0,0,0,0,0,0,0,0,0,0,0,0,0,0,0,0,0,0,0,0,0,0,0,0,0,0,0,0,0,0,0,0],"id":2,"left_children":[1,3,5,7,9,11,13,15,-1,17,19,21,23,25,27,29,31,33,35,37,39,41,43,45,47,49,51,53,55,-1,-1,57,59,61,63,65,67,69,71,73,75,77,79,81,83,85,87,89,91,93,95,97,99,101,103,105,107,-1,-1,-1,-1,-1,-1,-1,-1,-1,-1,-1,-1,-1,-1,-1,-1,-1,-1,-1,-1,-1,-1,-1,-1,-1,-1,-1,-1,-1,-1,-1,-1,-1,-1,-1,-1,-1,-1,-1,-1,-1,-1,-1,-1,-1,-1,-1,-1,-1,-1,-1,-1],"loss_changes":[2.2553572E1,7.19958E0,8.1085615E0,4.679361E0,5.171955E0,1.1679836E1,7.0317926E0,4.723903E0,0E0,5.524246E0,6.343807E0,1.0895784E1,5.3583546E0,6.8283076E0,7.2907295E0,5.700555E-1,4.322579E0,3.3141613E0,2.154922E0,7.2480955E0,5.960671E0,9.524799E0,2.6395864E0,6.0042567E0,4.960777E0,5.2039475E0,4.4705024E0,6.666872E0,2.283673E0,0E0,0E0,6.5988836E0,9.373817E0,5.3810773E0,5.0699615E0,7.6971936E-1,3.717207E0,1.920718E0,7.275286E-1,7.1217995E0,3.8961554E0,5.7269583E0,6.346224E0,1.6964931E0,4.4385324E0,5.460653E0,3.7738905E0,4.098674E0,3.0704618E0,8.483254E0,1.4384718E1,1.8910551E0,2.1897812E0,7.9360957E0,5.027937E0,8.4626955E-1,1.7165563E0,0E0,0E0,0E0,0E0,0E0,0E0,0E0,0E0,0E0,0E0,0E0,0E0,0E0,0E0,0E0,0E0,0E0,0E0,0E0,0E0,0E0,0E0,0E0,0E0,0E0,0E0,0E0,0E0,0E0,0E0,0E0,0E0,0E0,0E0,0E0,0E0,0E0,0E0,0E0,0E0,0E0,0E0,0E0,0E0,0E0,0E0,0E0,0E0,0E0,0E0,0E0,0E0],"parents":[2147483647,0,0,1,1,2,2,3,3,4,4,5,5,6,6,7,7,9,9,10,10,11,11,12,12,13,13,14,14,15,15,16,16,17,17,18,18,19,19,20,20,21,21,22,22,23,23,24,24,25,25,26,26,27,27,28,28,31,31,32,32,33,33,34,34,35,35,36,36,37,37,38,38,39,39,40,40,41,41,42,42,43,43,44,44,45,45,46,46,47,47,48,48,49,49,50,50,51,51,52,52,53,53,54,54,55,55,56,56],"right_children":[2,4,6,8,10,12,14,16,-1,18,20,22,24,26,28,30,32,34,36,38,40,42,44,46,48,50,52,54,56,-1,-1,58,60,62,64,66,68,70,72,74,76,78,80,82,84,86,88,90,92,94,96,98,100,102,104,106,108,-1,-1,-1,-1,-1,-1,-1,-1,-1,-1,-1,-1,-1,-1,-1,-1,-1,-1,-1,-1,-1,-1,-1,-1,-1,-1,-1,-1,-1,-1,-1,-1,-1,-1,-1,-1,-1,-1,-1,-1,-1,-1,-1,-1,-1,-1,-1,-1,-1,-1,-1,-1],"split_conditions":[-6.1884254E-1,-1.8497884E-2,1.3497106E0,2.2849277E-1,-1.029865E0,2.94351E-1,6.853781E-1,-1.4010386E0,-1.216947E-1,2.1107526E0,-7.981847E-1,9.5855105E-1,3.303704E-1,1.0677884E0,2.5053208E0,-2.3484713E-1,-4.5514846E-1,-1.1924853E0,1.0610937E-1,-1.0172787E0,-5.813629E-1,-1.794095E0,-4.4505274E-1,2.0526385E-1,2.3902745E0,5.134421E-1,4.726213E-1,-5.352286E-1,9.684408E-1,-2.1705063E-2,-1.2636529E-1,-1.0862541E0,-9.520416E-1,-1.260127E0,1.991147E-1,-9.514909E-1,1.7693391E-1,8.173342E-2,-5.813629E-1,-7.7205324E-1,-5.147097E-1,2.791028E-1,-6.082692E-1,-1.3531965E0,-3.2811886E-1,-1.0181566E0,-9.670442E-1,-1.0575019E0,-1.766031E-2,3.2169316E-2,2.3767456E-1,-1.3449651E0,1.6649052E0,-7.6645E-1,1.2592442E0,4.996902E-1,2.7862697E0,1.3291183E-2,-1.708896E-2,4.7424227E-2,3.8430025E-3,8.243423E-2,-7.4864015E-2,8.979905E-2,3.813077E-2,-1.916978E-2,-1.19824566E-1,1.07390754E-1,-5.3165134E-2,1.1468773E-1,-2.2723394E-2,-1.4731686E-1,-5.6009825E-2,-2.0308373E-2,4.6323787E-2,1.35505E-1,4.016396E-2,6.3685834E-2,-4.332517E-2,-9.048577E-2,-1.1660381E-2,-1.8307408E-2,-1.386161E-1,5.825782E-2,-7.3477834E-2,6.415112E-2,-1.2706987E-3,-1.9594412E-2,7.3063895E-2,-8.7880604E-2,3.1303365E-3,3.3669166E-2,-1.07556485E-1,4.917192E-2,-6.0331244E-2,-4.711033E-2,1.4246522E-1,-8.656341E-3,1.0670072E-1,4.828128E-2,-5.0098296E-2,-1.0178663E-1,9.536832E-2,-2.680847E-2,-7.174496E-2,1.2681039E-2,-6.64823E-2,8.9849345E-2,-2.3179647E-2],"split_indices":[14,4,14,2,14,2,5,9,0,1,1,14,14,1,5,5,5,13,9,2,5,8,9,9,8,5,4,1,3,0,0,14,2,13,7,12,12,6,5,14,5,5,14,11,9,13,5,3,3,4,0,9,14,9,2,3,3,0,0,0,0,0,0,0,0,0,0,0,0,0,0,0,0,0,0,0,0,0,0,0,0,0,0,0,0,0,0,0,0,0,0,0,0,0,0,0,0,0,0,0,0,0,0,0,0,0,0,0,0],"split_type":[0,0,0,0,0,0,0,0,0,0,0,0,0,0,0,0,0,0,0,0,0,0,0,0,0,0,0,0,0,0,0,0,0,0,0,0,0,0,0,0,0,0,0,0,0,0,0,0,0,0,0,0,0,0,0,0,0,0,0,0,0,0,0,0,0,0,0,0,0,0,0,0,0,0,0,0,0,0,0,0,0,0,0,0,0,0,0,0,0,0,0,0,0,0,0,0,0,0,0,0,0,0,0,0,0,0,0,0,0],"sum_hessian":[2.3927344E3,7.189573E2,1.673777E3,5.220649E2,1.968924E2,1.4770186E3,1.9675853E2,5.203187E2,1.7461531E0,9.635398E1,1.00538414E2,7.467904E2,7.302281E2,7.1883965E1,1.2487456E2,2.9998515E0,5.173189E2,8.9132996E1,7.220988E0,9.47444E0,9.106397E1,7.2482904E2,2.1961351E1,1.2027713E2,6.09951E2,5.421783E1,1.7666132E1,1.14137634E2,1.0736929E1,1.2499415E0,1.7499101E0,3.126341E2,2.046848E2,6.965919E0,8.2167076E1,3.2476401E0,3.9733474E0,2.7416859E0,6.7327533E0,6.476046E1,2.630351E1,3.0242525E1,6.9458655E2,9.229321E0,1.2732032E1,8.688192E1,3.339521E1,6.0295776E2,6.993207E0,3.9476818E1,1.4741014E1,1.0421056E1,7.245075E0,7.746525E0,1.06391106E2,3.997977E0,6.7389517E0,2.0375803E2,1.0887606E2,8.161561E1,1.2306919E2,2.7333164E0,4.2326026E0,3.3283436E1,4.888364E1,1.7481563E0,1.4994838E0,1.4808928E0,2.4924545E0,1.494823E0,1.2468629E0,2.9929948E0,3.7397587E0,3.8916042E1,2.5844416E1,4.950824E0,2.1352688E1,2.4788513E1,5.4540114E0,9.395394E0,6.851911E2,1.7487788E0,7.480541E0,2.4984415E0,1.023359E1,1.4478091E1,7.240383E1,4.726256E0,2.8668953E1,3.9901485E0,5.989676E2,1.4957409E0,5.497466E0,8.246175E0,3.1230642E1,8.993247E0,5.7477665E0,1.4914918E0,8.929564E0,2.9982884E0,4.2467866E0,1.9990362E0,5.7474885E0,4.3951385E1,6.243972E1,2.7487667E0,1.2492104E0,5.490375E0,1.2485769E0],"tree_param":{"num_deleted":"0","num_feature":"15","num_nodes":"109","size_leaf_vector":"1"}},{"base_weights":[-1.6547256E-4,1.3327186E-1,-5.7477262E-2,7.7181794E-2,2.8138602E-1,-2.6596865E-2,-1.8870021E-1,-1.0500344E-1,1.2685587E-1,4.1732925E-1,1.14230834E-1,-1.1236215E-1,6.236926E-2,-9.179063E-1,-1.659952E-1,8.5370585E-2,-6.210372E-1,2.5534037E-1,-8.55107E-3,-2.4675241E-1,4.831533E-1,-1.2537642E-1,3.801386E-1,-1.6655317E-1,2.7943155E-2,-1.9484336E-2,1.7453906E-1,-1.3336293E-1,-9.605372E-2,-2.3114938E-1,5.4029316E-2,-1.9690299E-1,3.450444E-1,1.6796158E-1,-8.5226756E-1,1.5207165E-1,6.453669E-1,-6.1186E-1,6.974417E-2,8.448214E-1,-7.920817E-1,5.1096135E-1,-7.955717E-2,1.5921536E-1,-6.942422E-1,1.1112287E-1,8.450078E-1,1.4652778E-1,-2.0393145E-1,1.0513939E0,-1.4503083E-2,1.7591213E-1,-1.076447E-1,2.5556672E-1,-5.1772676E-2,8.634097E-2,-1.1152575E-1,-1.9407162E-1,-7.9629266E-1,5.840179E-1,-8.871593E-2,8.673949E-2,-3.5406526E-2,8.066009E-2,5.6462577E-3,-2.5733948E-2,1.16342776E-1,-1.0565205E-1,3.3459563E-2,3.1670645E-2,-5.7288357E-3,2.4615701E-2,9.4582915E-2,7.5722344E-2,-1.0043316E-1,-4.745858E-2,1.1333289E-2,1.3454407E-2,1.11966886E-1,-1.4285053E-1,-5.0256695E-3,5.6659695E-2,-1.44052645E-2,-7.2321735E-2,3.6289267E-2,4.955539E-3,-9.618973E-2,2.7629925E-2,-1.0486481E-1,1.2448529E-1,2.724341E-2,-1.4552729E-3,1.2715843E-1,-1.8998342E-2,-1.0214194E-1,1.237715E-1,4.6775367E-2,2.4299968E-2,-1.9836089E-2,9.442515E-3,8.195437E-2,-1.2878994E-2,7.5875156E-2,-4.4272497E-2,2.8667245E-2,-5.497232E-2,8.191991E-3,-2.203655E-2,7.3040105E-2,1.578395E-2,-1.1453103E-1,8.780826E-2,-1.5209973E-2,-1.20154254E-1,-1.0830326E-3],"categories":[],"categories_nodes":[],"categories_segments":[],"categories_sizes":[],"default_left":[0,0,0,0,0,0,0,0,0,0,0,0,0,0,0,0,0,0,0,0,0,0,0,0,0,0,0,0,0,0,0,0,0,0,0,0,0,0,0,0,0,0,0,0,0,0,0,0,0,0,0,0,0,0,0,0,0,0,0,0,0,0,0,0,0,0,0,0,0,0,0,0,0,0,0,0,0,0,0,0,0,0,0,0,0,0,0,0,0,0,0,0,0,0,0,0,0,0,0,0,0,0,0,0,0,0,0,0,0,0,0,0,0,0,0],"id":3,"left_children":[1,3,5,7,9,11,13,15,17,19,21,23,25,27,29,31,33,35,37,39,41,43,45,47,49,51,53,-1,55,57,59,61,63,65,67,69,71,73,75,77,79,81,-1,83,85,87,89,91,93,95,97,99,101,103,105,-1,-1,107,109,111,113,-1,-1,-1,-1,-1,-1,-1,-1,-1,-1,-1,-1,-1,-1,-1,-1,-1,-1,-1,-1,-1,-1,-1,-1,-1,-1,-1,-1,-1,-1,-1,-1,-1,-1,-1,-1,-1,-1,-1,-1,-1,-1,-1,-1,-1,-1,-1,-1,-1,-1,-1,-1,-1,-1],"loss_changes":[1.8298885E1,5.9509373E0,6.7778006E0,4.744898E0,4.4310246E0,1.0354725E1,5.1242657E0,1.1110854E1,7.157384E0,4.854088E0,5.7675986E0,5.2574186E0,6.1210127E0,3.0845232E0,4.4607887E0,6.1594396E0,5.699435E0,8.402959E0,9.547062E0,6.877958E0,3.9228516E0,7.877486E0,5.258624E0,5.8636656E0,8.414419E0,6.6700315E0,5.1696405E0,0E0,5.105467E0,4.8659983E0,5.476455E0,7.074133E0,5.768294E0,3.5754275E0,6.1030846E0,5.815185E0,5.030073E0,1.3234587E1,4.3007283E0,6.221638E-1,3.4556417E0,3.6308002E0,0E0,6.156042E0,3.2696586E0,5.70397E0,3.2180853E0,9.759441E0,4.8886585E0,2.597971E-1,8.884031E0,6.2384834E0,4.9833508E0,4.6280937E0,5.0357146E0,0E0,0E0,5.658593E0,4.985835E0,3.4555564E0,4.9583387E0,0E0,0E0,0E0,0E0,0E0,0E0,0E0,0E0,0E0,0E0,0E0,0E0,0E0,0E0,0E0,0E0,0E0,0E0,0E0,0E0,0E0,0E0,0E0,0E0,0E0,0E0,0E0,0E0,0E0,0E0,0E0,0E0,0E0,0E0,0E0,0E0,0E0,0E0,0E0,0E0,0E0,0E0,0E0,0E0,0E0,0E0,0E0,0E0,0E0,0E0,0E0,0E0,0E0,0E0],"parents":[2147483647,0,0,1,1,2,2,3,3,4,4,5,5,6,6,7,7,8,8,9,9,10,10,11,11,12,12,13,13,14,14,15,15,16,16,17,17,18,18,19,19,20,20,21,21,22,22,23,23,24,24,25,25,26,26,28,28,29,29,30,30,31,31,32,32,33,33,34,34,35,35,36,36,37,37,38,38,39,39,40,40,41,41,43,43,44,44,45,45,46,46,47,47,48,48,49,49,50,50,51,51,52,52,53,53,54,54,57,57,58,58,59,59,60,60],"right_children":[2,4,6,8,10,12,14,16,18,20,22,24,26,28,30,32,34,36,38,40,42,44,46,48,50,52,54,-1,56,58,60,62,64,66,68,70,72,74,76,78,80,82,-1,84,86,88,90,92,94,96,98,100,102,104,106,-1,-1,108,110,112,114,-1,-1,-1,-1,-1,-1,-1,-1,-1,-1,-1,-1,-1,-1,-1,-1,-1,-1,-1,-1,-1,-1,-1,-1,-1,-1,-1,-1,-1,-1,-1,-1,-1,-1,-1,-1,-1,-1,-1,-1,-1,-1,-1,-1,-1,-1,-1,-1,-1,-1,-1,-1,-1,-1],"split_conditions":[-6.1884254E-1,-1.8497884E-2,1.1439135E0,-6.9054556E-1,-9.702481E-1,2.2849277E-1,3.034824E-1,-7.1811134E-1,1.9601361E-1,-1.9472104E0,-7.7205324E-1,1.6241571E-1,5.134421E-1,1.3206791E0,1.1445999E0,-4.1665745E-1,-1.109955E0,7.6956135E-1,-4.799173E-1,1.3818842E-1,2.5744963E0,3.8329053E-1,-1.8837664E-1,-1.0784262E0,-1.0666487E0,3.1983128E-1,1.3167677E0,-1.3336293E-1,-2.435001E-1,8.98855E-1,-6.460432E-1,-2.003371E0,-1.351418E0,-1.8040105E0,2.4609156E-1,-8.751569E-1,-5.049387E-1,-6.300437E-1,-7.6702255E-1,-6.848552E-1,-4.4237965E-1,-3.2236916E-1,-7.955717E-2,-1.3808038E0,-9.3651384E-1,-3.2283825E-1,4.0836638E-1,-2.3133356E-2,1.4967784E-1,-4.8677284E-1,-1.1001844E-1,1.0607276E0,1.1046897E0,-9.884437E-1,-7.594222E-1,8.634097E-2,-1.1152575E-1,8.463302E-1,2.4773987E-1,7.687348E-1,-5.3470016E-1,8.673949E-2,-3.5406526E-2,8.066009E-2,5.6462577E-3,-2.5733948E-2,1.16342776E-1,-1.0565205E-1,3.3459563E-2,3.1670645E-2,-5.7288357E-3,2.4615701E-2,9.4582915E-2,7.5722344E-2,-1.0043316E-1,-4.745858E-2,1.1333289E-2,1.3454407E-2,1.11966886E-1,-1.4285053E-1,-5.0256695E-3,5.6659695E-2,-1.44052645E-2,-7.2321735E-2,3.6289267E-2,4.955539E-3,-9.618973E-2,2.7629925E-2,-1.0486481E-1,1.2448529E-1,2.724341E-2,-1.4552729E-3,1.2715843E-1,-1.8998342E-2,-1.0214194E-1,1.237715E-1,4.6775367E-2,2.4299968E-2,-1.9836089E-2,9.442515E-3,8.195437E-2,-1.2878994E-2,7.5875156E-2,-4.4272497E-2,2.8667245E-2,-5.497232E-2,8.191991E-3,-2.203655E-2,7.3040105E-2,1.578395E-2,-1.1453103E-1,8.780826E-2,-1.5209973E-2,-1.20154254E-1,-1.0830326E-3],"split_indices":[14,4,14,9,14,2,2,2,8,14,14,3,5,14,1,5,13,10,13,4,13,12,1,13,9,14,2,0,1,1,11,14,14,0,12,3,1,1,1,11,11,2,0,5,11,1,1,9,3,1,14,9,14,3,8,0,0,1,3,9,11,0,0,0,0,0,0,0,0,0,0,0,0,0,0,0,0,0,0,0,0,0,0,0,0,0,0,0,0,0,0,0,0,0,0,0,0,0,0,0,0,0,0,0,0,0,0,0,0,0,0,0,0,0,0],"split_type":[0,0,0,0,0,0,0,0,0,0,0,0,0,0,0,0,0,0,0,0,0,0,0,0,0,0,0,0,0,0,0,0,0,0,0,0,0,0,0,0,0,0,0,0,0,0,0,0,0,0,0,0,0,0,0,0,0,0,0,0,0,0,0,0,0,0,0,0,0,0,0,0,0,0,0,0,0,0,0,0,0,0,0,0,0,0,0,0,0,0,0,0,0,0,0,0,0,0,0,0,0,0,0,0,0,0,0,0,0,0,0,0,0,0,0],"sum_hessian":[2.3907812E3,7.179273E2,1.672854E3,5.2183295E2,1.9609433E2,1.3551519E3,3.1770212E2,1.1156008E2,4.102729E2,1.0731831E2,8.8776024E1,6.898543E2,6.6529755E2,8.402897E0,3.0929922E2,8.2104744E1,2.9455338E1,2.1006313E2,2.0020975E2,9.430258E0,9.7888054E1,4.697539E1,4.1800632E1,4.9751053E2,1.9234381E2,3.8510294E2,2.801946E2,5.166686E0,3.2362106E0,2.3859528E2,7.070395E1,3.945627E1,4.264847E1,6.7379355E0,2.2717402E1,1.6718648E2,4.287666E1,2.2215101E1,1.7799464E2,2.958699E0,6.4715586E0,9.639226E1,1.495799E0,3.1791086E1,1.5184305E1,2.7262882E1,1.453775E1,5.2750603E1,4.4475992E2,6.71296E0,1.8563084E2,1.1942249E2,2.6568045E2,2.0622829E2,7.396634E1,1.7456964E0,1.4905142E0,2.2516606E2,1.3429221E1,1.4346507E1,5.635744E1,4.49528E0,3.496099E1,1.5716509E1,2.6931963E1,5.240488E0,1.4974477E0,1.9475578E1,3.2418222E0,9.330295E1,7.388353E1,1.91939E1,2.3682758E1,4.7424254E0,1.7472677E1,1.246356E1,1.6553108E2,1.241043E0,1.717656E0,2.9850085E0,3.48655E0,8.8970276E1,7.4219756E0,5.4834065E0,2.630768E1,4.2337685E0,1.0950536E1,2.4530914E1,2.7319667E0,7.8686814E0,6.6690683E0,4.7007366E1,5.7432375E0,4.385104E2,6.2494984E0,4.239016E0,2.4739435E0,7.7194336E1,1.0843651E2,1.07019936E2,1.2402555E1,2.6018182E2,5.498643E0,8.230433E0,1.9799785E2,1.4996948E1,5.8969387E1,2.1967955E2,5.4865003E0,3.7434018E0,9.68582E0,1.01135025E1,4.2330046E0,2.7427087E0,5.361473E1],"tree_param":{"num_deleted":"0","num_feature":"15","num_nodes":"115","size_leaf_vector":"1"}},{"base_weights":[-7.398232E-5,1.2040979E-1,-5.1755264E-2,7.2740324E-2,2.6852715E-1,2.186398E-1,-6.6223934E-2,7.468174E-1,5.682692E-2,-2.975181E-1,3.2117593E-1,8.9093035E-1,1.5995343E-1,-4.2267647E-2,-2.6392177E-1,-4.4806495E-2,1.1236783E0,1.2297526E-1,-6.803215E-2,1.0301321E-1,-6.325122E-1,-6.8824375E-1,3.5950392E-1,1.8294161E-3,1.19209446E-1,-3.7725562E-1,2.6480326E-1,-1.18492834E-1,3.9985284E-2,-7.936399E-2,-4.7714293E-1,7.733622E-2,-6.1542946E-1,-2.3908375E-3,1.37278E-1,-9.18888E-1,1.4140788E-1,3.6619452E-1,-1.2998319E-1,-7.939786E-1,3.7047323E-2,-1.1172994E-2,-1.30556E-1,3.8465628E-1,-6.321929E-1,5.119577E-1,-7.7093774E-1,6.8905497E-1,1.0242552E-1,-1.0027592E-1,-7.047105E-1,-1.0546136E0,4.635508E-2,-5.398409E-1,1.3401157E-1,-5.9050876E-1,5.412578E-1,-1.1096096E-1,1.5452665E-2,-1.3556044E-1,-1.4816843E-5,2.4075788E-2,4.9805705E-4,-2.1589422E-3,9.965771E-2,-3.5079014E-3,-5.6328177E-2,1.5480948E-2,-9.789765E-2,-7.512646E-2,7.300528E-2,9.4192564E-2,3.4113858E-2,1.9021625E-2,-1.03897355E-1,1.0173203E-1,-3.5247695E-2,-1.193104E-1,-7.29794E-3,1.0404624E-1,9.70269E-3,-1.820791E-2,4.7163155E-2,-1.7887576E-2,8.919753E-4,-1.00167885E-1,-8.148134E-3,-1.3082047E-1,-2.7466496E-2,3.5462674E-2,2.299092E-3,5.0821424E-2,-6.441816E-2,-8.815893E-2,2.2463167E-2,-4.659934E-2,-1.2593548E-1,7.085966E-2,-2.368899E-2],"categories":[],"categories_nodes":[],"categories_segments":[],"categories_sizes":[],"default_left":[0,0,0,0,0,0,0,0,0,0,0,0,0,0,0,0,0,0,0,0,0,0,0,0,0,0,0,0,0,0,0,0,0,0,0,0,0,0,0,0,0,0,0,0,0,0,0,0,0,0,0,0,0,0,0,0,0,0,0,0,0,0,0,0,0,0,0,0,0,0,0,0,0,0,0,0,0,0,0,0,0,0,0,0,0,0,0,0,0,0,0,0,0,0,0,0,0,0,0],"id":4,"left_children":[1,3,5,7,9,11,13,15,17,19,21,23,25,27,29,31,33,35,37,-1,39,41,43,-1,-1,45,47,49,51,53,55,-1,57,-1,-1,59,61,63,65,67,-1,69,-1,71,73,75,77,79,81,83,85,87,89,91,93,95,97,-1,-1,-1,-1,-1,-1,-1,-1,-1,-1,-1,-1,-1,-1,-1,-1,-1,-1,-1,-1,-1,-1,-1,-1,-1,-1,-1,-1,-1,-1,-1,-1,-1,-1,-1,-1,-1,-1,-1,-1,-1,-1],"loss_changes":[1.4883406E1,5.0465813E0,6.558598E0,5.7949686E0,5.290737E0,3.2187076E0,7.5122905E0,3.77005E0,4.4081984E0,7.4801803E0,6.4365864E0,1.7181973E0,4.58188E0,8.895441E0,6.7108135E0,2.8023195E0,2.458499E0,6.8242903E0,5.0277653E0,0E0,2.3799992E0,2.574761E0,4.1038513E0,0E0,0E0,5.0879354E0,4.556361E0,7.7916565E0,4.8095965E0,9.222483E0,9.483038E0,0E0,1.5003229E0,0E0,0E0,2.4847445E0,4.6531734E0,5.736017E0,6.6729875E0,2.1546211E0,0E0,2.722569E0,0E0,3.354412E0,1.6049649E0,2.4183655E0,2.7686167E0,3.7304811E0,5.311499E0,6.1400967E0,3.9944487E0,4.303527E-1,4.8881407E0,3.5738592E0,6.1286364E0,5.4009323E0,1.2710392E0,0E0,0E0,0E0,0E0,0E0,0E0,0E0,0E0,0E0,0E0,0E0,0E0,0E0,0E0,0E0,0E0,0E0,0E0,0E0,0E0,0E0,0E0,0E0,0E0,0E0,0E0,0E0,0E0,0E0,0E0,0E0,0E0,0E0,0E0,0E0,0E0,0E0,0E0,0E0,0E0,0E0,0E0],"parents":[2147483647,0,0,1,1,2,2,3,3,4,4,5,5,6,6,7,7,8,8,9,9,10,10,11,11,12,12,13,13,14,14,15,15,16,16,17,17,18,18,20,20,21,21,22,22,25,25,26,26,27,27,28,28,29,29,30,30,32,32,35,35,36,36,37,37,38,38,39,39,41,41,43,43,44,44,45,45,46,46,47,47,48,48,49,49,50,50,51,51,52,52,53,53,54,54,55,55,56,56],"right_children":[2,4,6,8,10,12,14,16,18,20,22,24,26,28,30,32,34,36,38,-1,40,42,44,-1,-1,46,48,50,52,54,56,-1,58,-1,-1,60,62,64,66,68,-1,70,-1,72,74,76,78,80,82,84,86,88,90,92,94,96,98,-1,-1,-1,-1,-1,-1,-1,-1,-1,-1,-1,-1,-1,-1,-1,-1,-1,-1,-1,-1,-1,-1,-1,-1,-1,-1,-1,-1,-1,-1,-1,-1,-1,-1,-1,-1,-1,-1,-1,-1,-1,-1],"split_conditions":[-6.1884254E-1,-1.6894567E-1,-1.8066882E0,-1.3362336E0,-7.9232424E-1,-5.186968E-1,1.3676132E0,-4.8591903E-1,-4.3994495E-1,-9.7138935E-1,-1.9472104E0,-2.1466804E0,-3.1991568E-1,3.173262E-1,1.2592442E0,-6.9995016E-1,-4.5382884E-1,-8.5402864E-1,-1.6661382E0,1.0301321E-1,-2.4211226E-2,3.330318E-1,2.5069845E0,1.8294161E-3,1.19209446E-1,-1.3671216E-1,2.5561111E-2,9.8499465E-1,-2.0314472E0,-1.1432095E-1,2.5053208E0,7.733622E-2,-2.0494175E-1,-2.3908375E-3,1.37278E-1,-8.6983484E-1,2.0750886E-1,-2.9605526E-1,-7.798883E-2,-1.1207318E-1,3.7047323E-2,-6.674768E-1,-1.30556E-1,-1.438381E-1,-5.961205E-1,8.224662E-1,-1.0509033E-1,1.0634385E0,3.550829E-1,-1.6317557E-1,3.455573E-1,5.9924257E-1,1.14139825E-1,-9.509194E-1,-1.0550238E0,1.1374154E0,1.6842083E0,-1.1096096E-1,1.5452665E-2,-1.3556044E-1,-1.4816843E-5,2.4075788E-2,4.9805705E-4,-2.1589422E-3,9.965771E-2,-3.5079014E-3,-5.6328177E-2,1.5480948E-2,-9.789765E-2,-7.512646E-2,7.300528E-2,9.4192564E-2,3.4113858E-2,1.9021625E-2,-1.03897355E-1,1.0173203E-1,-3.5247695E-2,-1.193104E-1,-7.29794E-3,1.0404624E-1,9.70269E-3,-1.820791E-2,4.7163155E-2,-1.7887576E-2,8.919753E-4,-1.00167885E-1,-8.148134E-3,-1.3082047E-1,-2.7466496E-2,3.5462674E-2,2.299092E-3,5.0821424E-2,-6.441816E-2,-8.815893E-2,2.2463167E-2,-4.659934E-2,-1.2593548E-1,7.085966E-2,-2.368899E-2],"split_indices":[14,3,7,11,1,2,14,5,4,2,14,0,4,2,2,13,13,1,2,0,11,12,13,0,0,1,4,14,10,4,5,0,1,0,0,2,7,13,11,3,0,13,0,3,2,11,11,14,4,11,12,4,14,0,9,4,4,0,0,0,0,0,0,0,0,0,0,0,0,0,0,0,0,0,0,0,0,0,0,0,0,0,0,0,0,0,0,0,0,0,0,0,0,0,0,0,0,0,0],"split_type":[0,0,0,0,0,0,0,0,0,0,0,0,0,0,0,0,0,0,0,0,0,0,0,0,0,0,0,0,0,0,0,0,0,0,0,0,0,0,0,0,0,0,0,0,0,0,0,0,0,0,0,0,0,0,0,0,0,0,0,0,0,0,0,0,0,0,0,0,0,0,0,0,0,0,0,0,0,0,0,0,0,0,0,0,0,0,0,0,0,0,0,0,0,0,0,0,0,0,0],"sum_hessian":[2.3882336E3,7.1651154E2,1.6717222E3,5.43186E2,1.7332558E2,8.419263E1,1.5875295E3,1.1468325E1,5.3171765E2,1.4353643E1,1.5897192E2,5.620857E0,7.857177E1,1.4170326E3,1.7049695E2,3.9829504E0,7.4853735E0,3.4758682E2,1.8413084E2,2.4739194E0,1.18797245E1,5.1951056E0,1.5377682E2,1.7143106E0,3.906546E0,1.2406699E1,6.616507E1,7.3523615E2,6.8179645E2,9.212691E1,7.837004E1,1.4905216E0,2.492429E0,1.4962631E0,5.9891105E0,5.193341E0,3.4239346E2,2.2376766E1,1.6175407E2,1.0411936E1,1.4677889E0,2.9631882E0,2.2319174E0,1.5057005E2,3.2067757E0,3.7150495E0,8.691649E0,1.7416544E1,4.8748524E1,7.142128E2,2.1023354E1,2.9925098E0,6.788039E2,2.8687536E1,6.3439377E1,7.089801E1,7.4720306E0,1.2493966E0,1.2430325E0,3.1977904E0,1.9955503E0,1.9767589E2,1.4471759E2,1.4452171E1,7.9245954E0,1.3357787E2,2.8176222E1,1.7255238E0,8.686412E0,1.4759514E0,1.4872367E0,9.411084E0,1.4115897E2,1.2374156E0,1.9693601E0,2.2328353E0,1.4822142E0,4.9737887E0,3.7178607E0,1.0453973E1,6.9625716E0,2.7818693E1,2.0929832E1,4.149155E2,2.9929733E2,1.3827376E1,7.195977E0,1.7471492E0,1.2453606E0,4.6823715E1,6.3198016E2,2.2469764E0,2.644056E1,4.481848E0,5.8957527E1,6.120122E1,9.696786E0,6.2231393E0,1.2488914E0],"tree_param":{"num_deleted":"0","num_feature":"15","num_nodes":"99","size_leaf_vector":"1"}},{"base_weights":[-1.61327E-4,9.9471375E-2,-5.1255826E-2,-2.6228985E-1,1.19661145E-1,-4.0338108E-1,-3.1518966E-2,1.0805055E-1,-3.7102222E-1,7.391517E-2,2.7498028E-1,-5.35019E-1,3.9015517E-1,-2.6655525E-2,-1.0277876E0,7.768213E-2,-4.5756114E-1,1.5445079E-1,-3.766654E-2,-6.2182945E-1,3.142384E-1,-3.6787552E-1,-1.027498E0,-1.6426386E-1,1.3301443E-1,1.8967243E-2,-1.3296549E-1,-4.362996E-1,-1.4632969E-1,-4.5177308E-4,-6.213668E-1,5.4538798E-2,4.634045E-1,4.616612E-2,-3.9527828E-1,-1.1058034E-1,-3.2793377E-2,6.128505E-1,2.1706246E-1,-5.2799135E-1,3.0922425E-1,-1.1317725E0,1.95142E-2,7.7548854E-2,-6.0892755E-1,-2.9037084E-2,1.6784333E-1,-3.837774E-2,-2.8033522E-1,6.8591736E-2,-1.0793612E-1,-5.624124E-2,5.894062E-2,-1.1094153E-1,-3.4966305E-2,5.989544E-4,3.8709007E-2,5.54713E-2,-2.9672509E-2,-2.1400794E-2,1.8925373E-2,-6.736597E-2,1.0244019E-2,-6.80905E-2,7.583177E-2,-7.945706E-2,6.7703575E-2,-1.6431598E-2,3.3463318E-2,-3.976864E-2,-1.3138995E-1,6.7208275E-2,-3.2899942E-2,-1.3030331E-1,-3.3163156E-2,-1.1151266E-1,3.529817E-2,8.6332865E-2,-3.4961135E-3,-1.0270207E-2,2.5126321E-2,-8.446055E-3,6.561064E-2,-8.369316E-2,-1.8877331E-2],"categories":[],"categories_nodes":[],"categories_segments":[],"categories_sizes":[],"default_left":[0,0,0,0,0,0,0,0,0,0,0,0,0,0,0,0,0,0,0,0,0,0,0,0,0,0,0,0,0,0,0,0,0,0,0,0,0,0,0,0,0,0,0,0,0,0,0,0,0,0,0,0,0,0,0,0,0,0,0,0,0,0,0,0,0,0,0,0,0,0,0,0,0,0,0,0,0,0,0,0,0,0,0,0,0],"id":5,"left_children":[1,3,5,7,9,11,13,-1,15,17,19,21,23,25,27,-1,29,31,33,35,37,39,41,43,-1,45,47,49,-1,51,53,55,57,59,61,-1,63,65,67,69,71,73,-1,-1,75,77,79,81,83,-1,-1,-1,-1,-1,-1,-1,-1,-1,-1,-1,-1,-1,-1,-1,-1,-1,-1,-1,-1,-1,-1,-1,-1,-1,-1,-1,-1,-1,-1,-1,-1,-1,-1,-1,-1],"loss_changes":[1.2157319E1,5.944252E0,1.0958296E1,6.6945744E0,5.4325504E0,8.952049E0,7.2206645E0,0E0,4.3904786E0,5.3455276E0,6.329893E0,5.5661907E0,6.726366E0,7.227589E0,1.2266688E0,0E0,2.8752031E0,1.0633833E1,7.509985E0,2.1426558E0,4.7302876E0,6.177275E0,2.4825993E0,4.1264462E0,0E0,7.460407E0,6.226315E0,3.9843206E0,0E0,4.02145E0,3.3609228E0,4.228711E0,6.01194E0,7.610156E0,6.6588492E0,0E0,2.8123355E0,4.2056627E0,5.7941995E0,4.109664E0,2.8240452E0,1.8280163E0,0E0,0E0,3.556736E0,4.204894E0,5.7697825E0,8.814338E0,8.7482605E0,0E0,0E0,0E0,0E0,0E0,0E0,0E0,0E0,0E0,0E0,0E0,0E0,0E0,0E0,0E0,0E0,0E0,0E0,0E0,0E0,0E0,0E0,0E0,0E0,0E0,0E0,0E0,0E0,0E0,0E0,0E0,0E0,0E0,0E0,0E0,0E0],"parents":[2147483647,0,0,1,1,2,2,3,3,4,4,5,5,6,6,8,8,9,9,10,10,11,11,12,12,13,13,14,14,16,16,17,17,18,18,19,19,20,20,21,21,22,22,23,23,25,25,26,26,27,27,29,29,30,30,31,31,32,32,33,33,34,34,36,36,37,37,38,38,39,39,40,40,41,41,44,44,45,45,46,46,47,47,48,48],"right_children":[2,4,6,8,10,12,14,-1,16,18,20,22,24,26,28,-1,30,32,34,36,38,40,42,44,-1,46,48,50,-1,52,54,56,58,60,62,-1,64,66,68,70,72,74,-1,-1,76,78,80,82,84,-1,-1,-1,-1,-1,-1,-1,-1,-1,-1,-1,-1,-1,-1,-1,-1,-1,-1,-1,-1,-1,-1,-1,-1,-1,-1,-1,-1,-1,-1,-1,-1,-1,-1,-1,-1],"split_conditions":[-5.0611234E-1,-8.075919E-1,-9.68102E-1,-1.0611643E-1,9.503148E-2,8.7165344E-1,1.2509395E0,1.0805055E-1,-1.5324348E0,-9.520416E-1,-1.9472104E0,4.2587344E-2,1.5709093E0,9.7151726E-1,-5.03021E-1,7.768213E-2,-1.0263032E0,-4.3574354E-1,3.260502E-1,-4.4237965E-1,-1.2528677E0,-1.415254E-1,6.199596E-1,-1.7935237E-1,1.3301443E-1,4.9760062E-1,2.0357783E-1,6.0293168E-2,-1.4632969E-1,-2.3967734E-2,7.040013E-2,8.7904483E-1,9.281855E-1,-5.148028E-1,-1.9131756E-1,-1.1058034E-1,-1.6400109E-1,-1.8875731E0,-9.520416E-1,-2.1372919E-1,-2.7147697E-2,9.905134E-1,1.95142E-2,7.7548854E-2,7.108625E-1,-9.079537E-1,1.8667023E-1,5.389763E-1,1.0033426E-1,6.8591736E-2,-1.0793612E-1,-5.624124E-2,5.894062E-2,-1.1094153E-1,-3.4966305E-2,5.989544E-4,3.8709007E-2,5.54713E-2,-2.9672509E-2,-2.1400794E-2,1.8925373E-2,-6.736597E-2,1.0244019E-2,-6.80905E-2,7.583177E-2,-7.945706E-2,6.7703575E-2,-1.6431598E-2,3.3463318E-2,-3.976864E-2,-1.3138995E-1,6.7208275E-2,-3.2899942E-2,-1.3030331E-1,-3.3163156E-2,-1.1151266E-1,3.529817E-2,8.6332865E-2,-3.4961135E-3,-1.0270207E-2,2.5126321E-2,-8.446055E-3,6.561064E-2,-8.369316E-2,-1.8877331E-2],"split_indices":[14,1,3,8,4,1,10,0,2,2,14,14,11,14,3,0,9,5,1,11,14,14,2,0,0,5,12,9,0,4,6,10,1,9,5,0,9,2,2,14,14,8,0,0,8,3,2,13,8,0,0,0,0,0,0,0,0,0,0,0,0,0,0,0,0,0,0,0,0,0,0,0,0,0,0,0,0,0,0,0,0,0,0,0,0],"split_type":[0,0,0,0,0,0,0,0,0,0,0,0,0,0,0,0,0,0,0,0,0,0,0,0,0,0,0,0,0,0,0,0,0,0,0,0,0,0,0,0,0,0,0,0,0,0,0,0,0,0,0,0,0,0,0,0,0,0,0,0,0,0,0,0,0,0,0,0,0,0,0,0,0,0,0,0,0,0,0,0,0,0,0,0,0],"sum_hessian":[2.3861494E3,8.0855164E2,1.5775978E3,4.2105858E1,7.664458E2,8.270049E1,1.4948972E3,2.4846206E0,3.9621235E1,5.932055E2,1.7324031E2,7.121292E1,1.1487573E1,1.4886569E3,6.2403545E0,2.2185159E0,3.740272E1,3.4431052E2,2.4889499E2,6.643235E0,1.6659708E2,5.44724E1,1.6740519E1,7.7448173E0,3.742755E0,1.0422139E3,4.46443E2,3.4951806E0,2.7451742E0,1.0131877E1,2.7270844E1,2.610625E2,8.3248E1,2.02334E2,4.656098E1,3.1652434E0,3.4779918E0,3.9600872E1,1.269962E2,4.423276E1,1.023964E1,1.5493458E1,1.247061E0,2.248612E0,5.4962053E0,7.88705E2,2.5350891E2,2.7268396E2,1.73759E2,1.2489591E0,2.2462215E0,5.212465E0,4.919412E0,8.650029E0,1.8620813E1,2.286935E2,3.236902E1,7.4561714E1,8.686286E0,7.161744E1,1.3071657E2,2.9633194E1,1.6927788E1,1.9883537E0,1.489638E0,1.2309046E0,3.8369965E1,2.9831272E1,9.7164925E1,3.9233757E1,4.9990053E0,6.494294E0,3.745346E0,1.22442255E1,3.249232E0,3.4967675E0,1.9994379E0,4.246873E0,7.844581E2,5.9690605E1,1.9381831E2,2.5653955E2,1.6144417E1,2.3396042E1,1.5036296E2],"tree_param":{"num_deleted":"0","num_feature":"15","num_nodes":"85","size_leaf_vector":"1"}},{"base_weights":[-2.749399E-4,9.8890506E-2,-4.271714E-2,5.1624533E-2,2.0933336E-1,-7.69916E-1,-3.808133E-2,7.859381E-2,-8.0220103E-1,2.4318323E-1,-2.887741E-1,-1.0459358E0,1.7081793E-2,6.7392415E-1,-4.2459577E-2,7.4944144E-1,6.23923E-2,-1.0448412E0,4.3899115E-2,4.2794284E-1,9.886184E-2,1.4047603E-1,-8.2149994E-1,-4.5792316E-3,-1.2118425E-1,9.3163776E-1,-6.535624E-2,-2.2443423E-2,-2.0140105E-1,-2.2085289E-2,1.008213E0,6.915311E-2,-1.14001624E-1,-3.0878636E-1,-1.1871196E0,4.601713E-1,-6.4833514E-2,-9.1789655E-2,4.02946E-1,6.632315E-1,-6.4470965E-1,3.689109E-2,-1.2544881E0,3.9566267E-1,1.2014362E0,-2.4159136E-1,-5.996549E-3,-3.398687E-2,-3.9013502E-1,1.344925E-1,3.5361383E-2,-5.708029E-3,1.2375473E-2,-6.686963E-2,1.8933969E-2,-1.3807803E-1,-5.1510096E-2,3.7458118E-2,1.0885344E-1,-3.8096167E-2,9.86238E-3,6.5397374E-2,-2.1924784E-2,-4.4560444E-2,1.1623247E-1,-1.0177995E-1,1.0140675E-2,-4.6248075E-2,-1.5362726E-1,1.0538961E-1,-1.8125929E-2,1.439784E-1,2.1630965E-2,8.962012E-2,-3.2106403E-2,-1.1164002E-2,4.0421886E-3,-4.4833824E-2,1.6446762E-2,-4.8082624E-2,5.0695237E-2],"categories":[],"categories_nodes":[],"categories_segments":[],"categories_sizes":[],"default_left":[0,0,0,0,0,0,0,0,0,0,0,0,0,0,0,0,0,0,0,0,0,0,0,0,0,0,0,0,0,0,0,0,0,0,0,0,0,0,0,0,0,0,0,0,0,0,0,0,0,0,0,0,0,0,0,0,0,0,0,0,0,0,0,0,0,0,0,0,0,0,0,0,0,0,0,0,0,0,0,0,0],"id":6,"left_children":[1,3,5,7,9,11,13,15,17,19,21,23,-1,25,27,29,31,33,-1,35,37,39,41,-1,-1,43,-1,45,47,-1,49,51,-1,53,55,57,-1,59,61,63,65,-1,67,69,71,73,75,77,79,-1,-1,-1,-1,-1,-1,-1,-1,-1,-1,-1,-1,-1,-1,-1,-1,-1,-1,-1,-1,-1,-1,-1,-1,-1,-1,-1,-1,-1,-1,-1,-1],"loss_changes":[1.00437E1,3.7228408E0,5.604294E0,1.1627276E1,3.6789713E0,2.913856E0,5.2083454E0,5.2543125E0,5.1165447E0,5.3160877E0,3.3343105E0,1.3191624E0,0E0,4.1032853E0,5.2523355E0,3.0876994E0,3.9591272E0,1.0192595E0,0E0,3.3448792E0,6.653244E0,3.9777818E0,3.7755923E0,0E0,0E0,8.2115793E-1,0E0,5.2921243E0,5.822349E0,0E0,1.5495291E0,3.2851517E0,0E0,7.532208E-1,6.862278E-1,4.2100124E0,0E0,3.944779E0,7.0413504E0,3.6642418E0,1.2066681E0,0E0,3.92035E-1,1.8972855E0,9.7359514E-1,9.556435E0,6.708895E0,8.2119055E0,7.2992544E0,0E0,0E0,0E0,0E0,0E0,0E0,0E0,0E0,0E0,0E0,0E0,0E0,0E0,0E0,0E0,0E0,0E0,0E0,0E0,0E0,0E0,0E0,0E0,0E0,0E0,0E0,0E0,0E0,0E0,0E0,0E0,0E0],"parents":[2147483647,0,0,1,1,2,2,3,3,4,4,5,5,6,6,7,7,8,8,9,9,10,10,11,11,13,13,14,14,15,15,16,16,17,17,19,19,20,20,21,21,22,22,25,25,27,27,28,28,30,30,31,31,33,33,34,34,35,35,37,37,38,38,39,39,40,40,42,42,43,43,44,44,45,45,46,46,47,47,48,48],"right_children":[2,4,6,8,10,12,14,16,18,20,22,24,-1,26,28,30,32,34,-1,36,38,40,42,-1,-1,44,-1,46,48,-1,50,52,-1,54,56,58,-1,60,62,64,66,-1,68,70,72,74,76,78,80,-1,-1,-1,-1,-1,-1,-1,-1,-1,-1,-1,-1,-1,-1,-1,-1,-1,-1,-1,-1,-1,-1,-1,-1,-1,-1,-1,-1,-1,-1,-1,-1],"split_conditions":[-6.1884254E-1,-6.551699E-2,-6.082692E-1,-9.923752E-2,-2.5053984E-1,4.4399372E-1,-2.2077703E0,-1.3362336E0,-1.5171348E-1,1.2993357E-1,2.003725E-1,-8.5974574E-1,1.7081793E-2,2.9486074E0,1.3676132E0,3.3611543E-2,2.2849277E-1,-1.1250707E0,4.3899115E-2,3.56813E-1,8.0727005E-1,-8.4340036E-1,-6.1802053E-1,-4.5792316E-3,-1.2118425E-1,6.764475E-1,-6.535624E-2,-9.68102E-1,1.2592442E0,-2.2085289E-2,-5.522949E-1,-4.895013E-1,-1.14001624E-1,-1.029865E0,-5.5076927E-1,5.293964E-1,-6.4833514E-2,9.7223364E-2,1.3234997E0,-1.7421349E0,-1.7223966E-1,3.689109E-2,-8.3974576E-1,1.8275139E0,1.689805E0,-1.0992502E0,-7.1957934E-1,-1.1432095E-1,2.5053208E0,1.344925E-1,3.5361383E-2,-5.708029E-3,1.2375473E-2,-6.686963E-2,1.8933969E-2,-1.3807803E-1,-5.1510096E-2,3.7458118E-2,1.0885344E-1,-3.8096167E-2,9.86238E-3,6.5397374E-2,-2.1924784E-2,-4.4560444E-2,1.1623247E-1,-1.0177995E-1,1.0140675E-2,-4.6248075E-2,-1.5362726E-1,1.0538961E-1,-1.8125929E-2,1.439784E-1,2.1630965E-2,8.962012E-2,-3.2106403E-2,-1.1164002E-2,4.0421886E-3,-4.4833824E-2,1.6446762E-2,-4.8082624E-2,5.0695237E-2],"split_indices":[14,4,14,4,5,11,7,11,3,6,10,5,0,11,14,6,2,11,0,12,10,11,2,0,0,1,0,3,2,0,1,9,0,14,11,9,0,13,13,7,5,0,1,11,2,13,11,4,5,0,0,0,0,0,0,0,0,0,0,0,0,0,0,0,0,0,0,0,0,0,0,0,0,0,0,0,0,0,0,0,0],"split_type":[0,0,0,0,0,0,0,0,0,0,0,0,0,0,0,0,0,0,0,0,0,0,0,0,0,0,0,0,0,0,0,0,0,0,0,0,0,0,0,0,0,0,0,0,0,0,0,0,0,0,0,0,0,0,0,0,0,0,0,0,0,0,0,0,0,0,0,0,0,0,0,0,0,0,0,0,0,0,0,0,0],"sum_hessian":[2.3843535E3,7.142324E2,1.6701212E3,5.0120172E2,2.130307E2,9.533694E0,1.6605875E3,4.8673544E2,1.4466271E1,1.999542E2,1.3076497E1,7.284521E0,2.2491734E0,9.214225E0,1.6513733E3,1.0410623E1,4.7632483E2,1.2233036E1,2.2332351E0,8.682983E1,1.13124374E2,7.6492944E0,5.4272027E0,1.2180014E0,6.0665197E0,7.9659395E0,1.2482855E0,1.4676831E3,1.8369019E2,2.2227387E0,8.187883E0,4.745988E2,1.7260469E0,2.4951372E0,9.737899E0,8.486115E1,1.9686712E0,6.995983E1,4.3164543E1,4.68528E0,2.9640143E0,1.4869983E0,3.9402041E0,3.493114E0,4.4728255E0,1.0150332E2,1.3661798E3,9.79685E1,8.572169E1,4.710385E0,3.4774988E0,1.4328743E2,3.3131134E2,1.2497407E0,1.2453965E0,6.740703E0,2.9971955E0,7.6092606E1,8.768549E0,2.7379364E1,4.2580467E1,3.0719501E1,1.2445041E1,1.4875532E0,3.1977267E0,1.7332073E0,1.2308068E0,1.7271073E0,2.2130969E0,1.2454144E0,2.2476997E0,3.2298522E0,1.2429736E0,5.955981E0,9.554733E1,4.1661127E2,9.4956854E2,3.1318897E1,6.66496E1,7.8272705E1,7.448981E0],"tree_param":{"num_deleted":"0","num_feature":"15","num_nodes":"81","size_leaf_vector":"1"}},{"base_weights":[-2.9633395E-4,1.3926855E-1,-2.6014175E-2,1.5608421E-1,-8.3459425E-1,-2.1663936E-2,-8.3786654E-1,1.3945314E-1,1.1783441E0,-1.4521572E-1,7.311748E-2,-2.5021926E-2,8.8014007E-1,-1.5286204E-1,-2.928047E-1,1.932291E-1,-1.8981823E-1,1.3893177E-1,4.4097506E-2,2.7108617E-2,-7.100534E-2,7.343451E-3,1.209984E0,2.4796098E-1,-1.2653463E-1,1.2162338E-1,4.3565008E-1,3.0221354E-2,-6.124676E-1,9.498277E-1,1.9466314E-2,-7.613451E-1,-6.406286E-2,1.4124113E-1,5.1160563E-2,-1.663718E-1,8.10655E-2,1.680821E-2,-3.470164E-2,2.8856695E-2,8.2872316E-2,-7.195563E-2,2.9727817E-2,-1.5547481E-2,-9.693044E-2,-3.0306159E-2,1.2390142E-1,8.794899E-3,-5.1690354E-3,-1.738918E-2,-1.263773E-1,2.6554821E-2,-7.503552E-3,4.481449E-2,-7.155926E-2],"categories":[],"categories_nodes":[],"categories_segments":[],"categories_sizes":[],"default_left":[0,0,0,0,0,0,0,0,0,0,0,0,0,0,0,0,0,0,0,0,0,0,0,0,0,0,0,0,0,0,0,0,0,0,0,0,0,0,0,0,0,0,0,0,0,0,0,0,0,0,0,0,0,0,0],"id":7,"left_children":[1,3,5,7,9,11,13,15,17,-1,-1,19,21,-1,23,25,27,-1,-1,29,31,-1,33,35,-1,37,39,41,43,45,47,49,51,-1,-1,53,-1,-1,-1,-1,-1,-1,-1,-1,-1,-1,-1,-1,-1,-1,-1,-1,-1,-1,-1],"loss_changes":[8.558766E0,6.2062936E0,7.0929565E0,6.0508957E0,7.3038588E0,6.0899487E0,3.5828838E0,6.426307E0,2.7687693E-1,0E0,0E0,4.789763E0,1.8964968E0,0E0,4.1111126E0,5.34021E0,4.776826E0,0E0,0E0,6.587621E0,5.038647E0,0E0,1.695633E-2,1.4116604E0,0E0,5.3105497E0,3.8343315E0,7.142057E0,2.7135777E0,3.1560616E0,4.537102E0,2.872539E0,3.8247933E0,0E0,0E0,1.6652197E0,0E0,0E0,0E0,0E0,0E0,0E0,0E0,0E0,0E0,0E0,0E0,0E0,0E0,0E0,0E0,0E0,0E0,0E0,0E0],"parents":[2147483647,0,0,1,1,2,2,3,3,4,4,5,5,6,6,7,7,8,8,11,11,12,12,14,14,15,15,16,16,19,19,20,20,22,22,23,23,25,25,26,26,27,27,28,28,29,29,30,30,31,31,32,32,35,35],"right_children":[2,4,6,8,10,12,14,16,18,-1,-1,20,22,-1,24,26,28,-1,-1,30,32,-1,34,36,-1,38,40,42,44,46,48,50,52,-1,-1,54,-1,-1,-1,-1,-1,-1,-1,-1,-1,-1,-1,-1,-1,-1,-1,-1,-1,-1,-1],"split_conditions":[-1.0862541E0,1.6186684E-1,2.4835212E0,2.609968E0,-5.6041443E-1,2.5880172E0,1.4279778E-1,1.4576356E0,-1.334808E0,-1.4521572E-1,7.311748E-2,-3.048635E-1,-1.2528183E0,-1.5286204E-1,4.8281038E-1,1.0869622E-2,-1.5118622E0,1.3893177E-1,4.4097506E-2,-1.8366066E0,-9.9826634E-1,7.343451E-3,1.8026767E0,2.459735E0,-1.2653463E-1,-1.06212355E-1,8.4002906E-1,1.7638924E0,2.1107526E0,-7.3866147E-1,-8.306856E-2,-7.6260346E-1,-1.3531965E0,1.4124113E-1,5.1160563E-2,-2.076921E-1,8.10655E-2,1.680821E-2,-3.470164E-2,2.8856695E-2,8.2872316E-2,-7.195563E-2,2.9727817E-2,-1.5547481E-2,-9.693044E-2,-3.0306159E-2,1.2390142E-1,8.794899E-3,-5.1690354E-3,-1.738918E-2,-1.263773E-1,2.6554821E-2,-7.503552E-3,4.481449E-2,-7.155926E-2],"split_indices":[14,5,12,11,2,6,2,1,14,0,0,13,5,0,5,4,14,0,0,2,9,0,9,3,0,4,10,1,1,10,8,1,11,0,0,5,0,0,0,0,0,0,0,0,0,0,0,0,0,0,0,0,0,0,0],"split_type":[0,0,0,0,0,0,0,0,0,0,0,0,0,0,0,0,0,0,0,0,0,0,0,0,0,0,0,0,0,0,0,0,0,0,0,0,0,0,0,0,0,0,0,0,0,0,0,0,0,0,0,0,0,0,0],"sum_hessian":[2.382508E3,3.7002908E2,2.012479E3,3.6457373E2,5.455358E0,2.0027739E3,9.705001E0,3.5985568E2,4.7180486E0,3.9643273E0,1.4910307E0,1.9963126E3,6.461289E0,3.4845548E0,6.2204466E0,3.0969073E2,5.016492E1,2.9809842E0,1.7370642E0,9.358112E2,1.0605015E3,2.2299912E0,4.2312975E0,4.476436E0,1.7440103E0,2.4023302E2,6.945773E1,3.360039E1,1.6564531E1,6.6743608E0,9.2913684E2,9.476938E0,1.0510245E3,2.4877877E0,1.7435098E0,2.9837317E0,1.4927045E0,2.1914897E2,2.1084044E1,5.18065E1,1.7651232E1,8.379647E0,2.5220743E1,7.892494E0,8.672037E0,1.2426498E0,5.431711E0,4.733443E2,4.5579257E2,4.9893494E0,4.487589E0,3.3113617E1,1.0179109E3,1.4950136E0,1.4887182E0],"tree_param":{"num_deleted":"0","num_feature":"15","num_nodes":"55","size_leaf_vector":"1"}},{"base_weights":[-2.5666572E-4,7.675388E-2,-3.9627813E-2,6.2093294E-1,6.3559465E-2,-3.163901E-1,-2.1260813E-2,1.1437248E-1,1.16203E0,-2.302632E-1,9.4083644E-2,-3.7214032E-1,6.0940164E-1,-1.7025113E-2,-9.144997E-1,4.2429882E-1,-9.734764E-2,1.3172308E-1,2.960751E-2,-1.0486922E0,-1.3374859E-1,8.526382E-2,7.7814627E-1,-2.3190162E-1,-7.140781E-1,1.1466692E-1,-3.0523602E-2,2.2243576E-2,-1.0765649E-1,-3.138761E-1,-1.3525827E-1,7.569511E-1,-7.7076934E-2,-4.067988E-1,-1.4220695E-1,7.2951235E-2,-5.229985E-1,1.07305065E-1,7.9932235E-2,1.0713785E0,-4.1212346E-2,-3.9726743E-1,3.763684E-1,-1.6180559E-1,-8.748134E-1,-2.0166645E-2,1.852506E-1,-5.789202E-1,-8.0876715E-2,-9.4578326E-2,6.670783E-2,9.554496E-2,-4.0290332E-3,-8.538934E-2,1.48567585E-2,-1.3207291E-2,5.1146843E-2,-6.3056156E-2,3.5337634E-2,-4.250815E-2,8.932596E-3,2.1272106E-3,1.5932424E-1,-5.0673157E-2,1.8323323E-2,5.9793748E-2,-5.224212E-2,-1.19668745E-1,3.163002E-2,-9.888528E-2,2.1824915E-2,-4.521085E-3,1.6252456E-2,3.1552978E-2,5.067523E-3,-1.23133376E-1,-1.9888228E-2,1.4545651E-3,-2.3050841E-2],"categories":[],"categories_nodes":[],"categories_segments":[],"categories_sizes":[],"default_left":[0,0,0,0,0,0,0,0,0,0,0,0,0,0,0,0,0,0,0,0,0,0,0,0,0,0,0,0,0,0,0,0,0,0,0,0,0,0,0,0,0,0,0,0,0,0,0,0,0,0,0,0,0,0,0,0,0,0,0,0,0,0,0,0,0,0,0,0,0,0,0,0,0,0,0,0,0,0,0],"id":8,"left_children":[1,3,5,7,9,11,13,15,17,19,21,23,25,27,29,31,-1,-1,-1,33,35,37,39,41,43,-1,-1,45,47,49,-1,51,-1,53,-1,55,57,-1,59,61,-1,63,65,67,69,71,73,75,77,-1,-1,-1,-1,-1,-1,-1,-1,-1,-1,-1,-1,-1,-1,-1,-1,-1,-1,-1,-1,-1,-1,-1,-1,-1,-1,-1,-1,-1,-1],"loss_changes":[7.2266498E0,5.749949E0,8.01039E0,5.067661E0,7.092027E0,5.28899E0,5.5842648E0,4.090906E0,8.2827854E-1,5.7429667E0,4.2466106E0,4.3002596E0,3.2738364E0,5.248695E0,1.4084592E0,4.235371E0,0E0,0E0,0E0,1.2694712E0,5.490768E0,3.6369977E0,3.574564E0,6.941614E0,2.2202082E0,0E0,0E0,7.11954E0,5.57922E0,3.2593474E0,0E0,1.2555342E0,0E0,1.1787422E0,0E0,4.126118E0,2.450109E0,0E0,3.37851E0,4.065234E0,0E0,3.4973812E0,3.2889755E0,3.9531586E0,2.7563257E0,3.7486315E0,3.7115474E0,5.6580644E0,6.0428057E0,0E0,0E0,0E0,0E0,0E0,0E0,0E0,0E0,0E0,0E0,0E0,0E0,0E0,0E0,0E0,0E0,0E0,0E0,0E0,0E0,0E0,0E0,0E0,0E0,0E0,0E0,0E0,0E0,0E0,0E0],"parents":[2147483647,0,0,1,1,2,2,3,3,4,4,5,5,6,6,7,7,8,8,9,9,10,10,11,11,12,12,13,13,14,14,15,15,19,19,20,20,21,21,22,22,23,23,24,24,27,27,28,28,29,29,31,31,33,33,35,35,36,36,38,38,39,39,41,41,42,42,43,43,44,44,45,45,46,46,47,47,48,48],"right_children":[2,4,6,8,10,12,14,16,18,20,22,24,26,28,30,32,-1,-1,-1,34,36,38,40,42,44,-1,-1,46,48,50,-1,52,-1,54,-1,56,58,-1,60,62,-1,64,66,68,70,72,74,76,78,-1,-1,-1,-1,-1,-1,-1,-1,-1,-1,-1,-1,-1,-1,-1,-1,-1,-1,-1,-1,-1,-1,-1,-1,-1,-1,-1,-1,-1,-1],"split_conditions":[-5.0611234E-1,-1.7938863E0,-8.751569E-1,-2.2702687E0,-9.401413E-1,4.0873327E0,1.2509395E0,-2.9538457E0,7.528669E-2,-1.8128134E0,-5.182222E-1,4.2587344E-2,-1.4930229E-1,9.7151726E-1,-5.03021E-1,-6.590896E-1,-9.734764E-2,1.3172308E-1,2.960751E-2,-1.2720873E0,-1.0351928E0,-1.8515581E0,2.0668958E-1,8.990436E-1,7.820629E-1,1.1466692E-1,-3.0523602E-2,5.593093E-1,3.034824E-1,2.2170968E0,-1.3525827E-1,6.764475E-1,-7.7076934E-2,-1.150259E0,-1.4220695E-1,2.5561111E-2,-3.9987266E-3,1.07305065E-1,-8.5402864E-1,-1.7220698E-1,-4.1212346E-2,-1.6909935E-1,1.5583539E0,-8.809663E-2,1.1445999E0,1.1024697E0,-3.1658942E-1,-1.2785713E-1,2.0357783E-1,-9.4578326E-2,6.670783E-2,9.554496E-2,-4.0290332E-3,-8.538934E-2,1.48567585E-2,-1.3207291E-2,5.1146843E-2,-6.3056156E-2,3.5337634E-2,-4.250815E-2,8.932596E-3,2.1272106E-3,1.5932424E-1,-5.0673157E-2,1.8323323E-2,5.9793748E-2,-5.224212E-2,-1.19668745E-1,3.163002E-2,-9.888528E-2,2.1824915E-2,-4.521085E-3,1.6252456E-2,3.1552978E-2,5.067523E-3,-1.23133376E-1,-1.9888228E-2,1.4545651E-3,-2.3050841E-2],"split_indices":[14,12,3,10,9,9,10,12,3,6,14,14,8,14,3,9,0,0,0,14,9,8,5,5,5,0,0,5,2,0,0,1,0,2,0,4,12,0,1,9,0,14,5,9,1,11,1,8,12,0,0,0,0,0,0,0,0,0,0,0,0,0,0,0,0,0,0,0,0,0,0,0,0,0,0,0,0,0,0],"split_type":[0,0,0,0,0,0,0,0,0,0,0,0,0,0,0,0,0,0,0,0,0,0,0,0,0,0,0,0,0,0,0,0,0,0,0,0,0,0,0,0,0,0,0,0,0,0,0,0,0,0,0,0,0,0,0,0,0,0,0,0,0,0,0,0,0,0,0,0,0,0,0,0,0,0,0,0,0,0,0],"sum_hessian":[2.3814617E3,8.0531134E2,1.5761503E3,1.7973358E1,7.87338E2,9.707993E1,1.4790703E3,9.908582E0,8.064776E0,7.3480316E1,7.138577E2,9.212999E1,4.9499407E0,1.473104E3,5.966335E0,8.186287E0,1.7222944E0,6.397121E0,1.667655E0,6.7105193E0,6.676979E1,7.058812E2,7.976491E0,6.652453E1,2.5605457E1,2.9584374E0,1.9915034E0,1.0283123E3,4.4479175E2,3.2402883E0,2.7260466E0,6.6905484E0,1.4957383E0,3.2363107E0,3.4742086E0,4.4142036E1,2.2627756E1,2.714427E0,7.031668E2,6.479983E0,1.4965082E0,5.2577553E1,1.3946976E1,6.2246747E0,1.9380783E1,8.167034E2,2.1160887E2,2.2807812E1,4.2198395E2,1.9925741E0,1.2477142E0,5.197918E0,1.4926307E0,1.4951317E0,1.7411789E0,3.0555124E1,1.3586912E1,2.040394E1,2.2238164E0,1.2032614E1,6.9113416E2,2.4967425E0,3.9832401E0,4.434295E1,8.234607E0,1.1457268E1,2.4897084E0,1.4920619E0,4.7326126E0,1.7636139E1,1.7446439E0,7.189049E2,9.779848E1,1.0683746E2,1.047714E2,7.5708528E0,1.5236959E1,2.5821753E2,1.637664E2],"tree_param":{"num_deleted":"0","num_feature":"15","num_nodes":"79","size_leaf_vector":"1"}},{"base_weights":[-3.6411022E-4,3.115382E-3,-7.7486145E-1,1.1938025E-1,-1.8364456E-2,-1.4195718E-1,-2.6838973E-1,1.3471296E-1,-7.6801354E-1,-2.1479193E-2,8.2020813E-1,2.3884381E-1,-1.1844472E-1,1.19202144E-1,1.0970931E0,-1.3378397E-1,6.806528E-2,-5.222597E-1,-1.7323812E-2,1.0673257E0,-1.0223714E-2,-1.5124911E-1,7.6523386E-2,1.6850507E-1,-1.8177949E-1,1.3091898E-1,3.865723E-2,-7.269569E-1,1.0921752E-1,-3.0551719E-2,1.5627737E-1,1.3781555E-2,1.2818058E-1,4.4765398E-2,-6.9170564E-2,-1.5482142E-2,2.1528415E-2,1.683856E-3,-5.6147005E-2,6.9398745E-3,-8.703282E-2,1.713499E-2,-4.238753E-3,3.0063018E-2,-2.6591664E-2],"categories":[],"categories_nodes":[],"categories_segments":[],"categories_sizes":[],"default_left":[0,0,0,0,0,0,0,0,0,0,0,0,0,0,0,0,0,0,0,0,0,0,0,0,0,0,0,0,0,0,0,0,0,0,0,0,0,0,0,0,0,0,0,0,0],"id":9,"left_children":[1,3,5,7,9,-1,11,13,15,17,19,21,-1,23,25,-1,-1,27,29,31,-1,33,-1,35,37,-1,-1,39,-1,41,43,-1,-1,-1,-1,-1,-1,-1,-1,-1,-1,-1,-1,-1,-1],"loss_changes":[6.418428E0,5.9238687E0,3.0972595E0,5.1363034E0,5.247465E0,0E0,3.6278844E0,5.3096685E0,6.2200155E0,4.144193E0,1.8039861E0,1.2380351E0,0E0,5.3698554E0,3.4671402E-1,0E0,0E0,6.2105765E0,4.552672E0,1.0098662E0,0E0,1.5959967E0,0E0,4.7172117E0,3.8648734E0,0E0,0E0,1.7897615E0,0E0,4.406833E0,8.635672E0,0E0,0E0,0E0,0E0,0E0,0E0,0E0,0E0,0E0,0E0,0E0,0E0,0E0,0E0],"parents":[2147483647,0,0,1,1,2,2,3,3,4,4,6,6,7,7,8,8,9,9,10,10,11,11,13,13,14,14,17,17,18,18,19,19,21,21,23,23,24,24,27,27,29,29,30,30],"right_children":[2,4,6,8,10,-1,12,14,16,18,20,22,-1,24,26,-1,-1,28,30,32,-1,34,-1,36,38,-1,-1,40,-1,42,44,-1,-1,-1,-1,-1,-1,-1,-1,-1,-1,-1,-1,-1,-1],"split_conditions":[2.4835212E0,-1.0862541E0,1.4279778E-1,1.6186684E-1,2.5880172E0,-1.4195718E-1,4.8281038E-1,2.609968E0,-5.6041443E-1,-1.9782672E0,5.7396656E-1,2.459735E0,-1.1844472E-1,1.4576356E0,-1.4647986E0,-1.3378397E-1,6.806528E-2,-1.8047972E-1,1.4805956E0,7.9061717E-1,-1.0223714E-2,5.111279E-1,7.6523386E-2,-1.8875731E0,-1.5118622E0,1.3091898E-1,3.865723E-2,-1.7480133E0,1.0921752E-1,-1.794095E0,1.5854192E0,1.3781555E-2,1.2818058E-1,4.4765398E-2,-6.9170564E-2,-1.5482142E-2,2.1528415E-2,1.683856E-3,-5.6147005E-2,6.9398745E-3,-8.703282E-2,1.713499E-2,-4.238753E-3,3.0063018E-2,-2.6591664E-2],"split_indices":[12,14,2,5,6,0,5,11,2,5,3,3,0,1,4,0,0,2,9,9,0,14,0,2,14,0,0,2,0,8,12,0,0,0,0,0,0,0,0,0,0,0,0,0,0],"split_type":[0,0,0,0,0,0,0,0,0,0,0,0,0,0,0,0,0,0,0,0,0,0,0,0,0,0,0,0,0,0,0,0,0,0,0,0,0,0,0,0,0,0,0,0,0],"sum_hessian":[2.379836E3,2.3701838E3,9.652266E0,3.6889447E2,2.0012893E3,3.4534068E0,6.198859E0,3.6346262E2,5.4318476E0,1.9948541E3,6.4351683E0,4.465513E0,1.7333459E0,3.588036E2,4.6590276E0,3.9533274E0,1.4785202E0,1.5390618E1,1.9794635E3,4.951602E0,1.4835659E0,2.9741335E0,1.4913797E0,3.086798E2,5.012379E1,2.9391022E0,1.7199254E0,1.4146652E1,1.2439661E0,1.8400789E3,1.3938466E2,1.2363002E0,3.715302E0,1.4922351E0,1.4818984E0,3.8723316E1,2.6995648E2,3.353639E1,1.6587402E1,2.2370288E0,1.1909623E1,1.0114894E2,1.7389299E3,1.0408484E2,3.5299828E1],"tree_param":{"num_deleted":"0","num_feature":"15","num_nodes":"45","size_leaf_vector":"1"}},{"base_weights":[-3.1434582E-4,2.3216462E-2,-1.0194107E-1,-6.593832E-1,2.6622573E-2,-5.6754786E-1,-7.4961886E-2,5.7808716E-2,-9.1012704E-1,3.4006882E-2,-2.8725773E-1,-1.1422688E0,-2.481695E-1,1.4323248E-2,-2.1386532E-1,1.06426235E-2,-1.0978993E0,1.5067304E-2,1.8695165E-1,6.6253525E-1,-3.710037E-1,-3.9813466E-2,-1.2731516E0,-6.8400824E-1,2.0185141E-1,-2.9449498E-2,6.4410657E-1,-4.6831146E-1,-2.8104693E-2,-1.2461686E0,-3.1491455E-2,1.9304637E-2,-9.991716E-1,1.4168446E-1,1.635246E-1,1.0347275E-1,1.1172982E-2,-6.1389136E-1,-1.9378068E-3,-4.011576E-2,-1.3846654E-1,-1.0677993E0,3.2344803E-2,8.840079E-1,-3.2009622E-1,3.0420836E-2,-3.7987834E-1,1.5567751E-1,1.2759328E0,-3.8348287E-1,-1.3244402E-1,-3.5499868E-1,2.4918772E-1,-4.3399032E-2,-1.4291435E-1,7.988851E-3,-2.595462E-3,-1.3103376E-1,2.3871887E-2,5.8506843E-2,1.1214549E-2,-1.0326751E-1,-3.3824395E-2,5.407348E-2,-5.5901755E-2,-1.2610994E-1,-1.22488E-2,2.6012246E-2,1.21181644E-1,-8.432108E-2,5.869749E-2,2.142996E-2,-1.1688306E-2,-7.843538E-2,-4.9707233E-3,4.8373383E-2,-7.427474E-2,1.4542514E-1,2.3272123E-2,-6.243972E-2,-3.361017E-3,-1.02494145E-2,-8.151478E-2,6.1806984E-2,-1.4463067E-2],"categories":[],"categories_nodes":[],"categories_segments":[],"categories_sizes":[],"default_left":[0,0,0,0,0,0,0,0,0,0,0,0,0,0,0,0,0,0,0,0,0,0,0,0,0,0,0,0,0,0,0,0,0,0,0,0,0,0,0,0,0,0,0,0,0,0,0,0,0,0,0,0,0,0,0,0,0,0,0,0,0,0,0,0,0,0,0,0,0,0,0,0,0,0,0,0,0,0,0,0,0,0,0,0,0],"id":10,"left_children":[1,3,5,7,9,11,13,-1,15,17,19,21,23,25,27,-1,29,31,33,35,37,-1,39,41,43,45,47,49,51,53,-1,55,57,-1,59,-1,-1,61,63,-1,-1,65,-1,67,69,71,73,75,77,79,-1,81,83,-1,-1,-1,-1,-1,-1,-1,-1,-1,-1,-1,-1,-1,-1,-1,-1,-1,-1,-1,-1,-1,-1,-1,-1,-1,-1,-1,-1,-1,-1,-1,-1],"loss_changes":[5.693565E0,4.51243E0,5.580441E0,3.5166159E0,4.470665E0,4.1887507E0,5.2648E0,0E0,1.7206936E0,5.4467335E0,3.7729685E0,3.137293E-1,3.4604328E0,7.1643324E0,7.8362303E0,0E0,4.4118977E-1,7.2182374E0,5.73854E0,6.9458604E-1,3.709231E0,0E0,9.704399E-2,3.7606692E0,3.5251825E0,5.1162367E0,5.013125E0,4.5768423E0,8.8859215E0,2.2672272E-1,0E0,4.5786986E0,3.0045342E0,0E0,4.362804E0,0E0,0E0,2.5320005E0,5.5721135E0,0E0,0E0,1.0568008E0,0E0,5.4641724E-1,3.2911787E0,5.6787467E0,4.712233E0,3.5023305E0,1.005455E0,5.467101E0,0E0,5.139812E0,7.8031225E0,0E0,0E0,0E0,0E0,0E0,0E0,0E0,0E0,0E0,0E0,0E0,0E0,0E0,0E0,0E0,0E0,0E0,0E0,0E0,0E0,0E0,0E0,0E0,0E0,0E0,0E0,0E0,0E0,0E0,0E0,0E0,0E0],"parents":[2147483647,0,0,1,1,2,2,3,3,4,4,5,5,6,6,8,8,9,9,10,10,11,11,12,12,13,13,14,14,16,16,17,17,18,18,19,19,20,20,22,22,23,23,24,24,25,25,26,26,27,27,28,28,29,29,31,31,32,32,34,34,37,37,38,38,41,41,43,43,44,44,45,45,46,46,47,47,48,48,49,49,51,51,52,52],"right_children":[2,4,6,8,10,12,14,-1,16,18,20,22,24,26,28,-1,30,32,34,36,38,-1,40,42,44,46,48,50,52,54,-1,56,58,-1,60,-1,-1,62,64,-1,-1,66,-1,68,70,72,74,76,78,80,-1,82,84,-1,-1,-1,-1,-1,-1,-1,-1,-1,-1,-1,-1,-1,-1,-1,-1,-1,-1,-1,-1,-1,-1,-1,-1,-1,-1,-1,-1,-1,-1,-1,-1],"split_conditions":[9.7151726E-1,-1.4010386E0,3.034824E-1,-2.1785197E0,2.3017533E0,-1.2785713E-1,2.0357783E-1,5.7808716E-2,-3.065995E-1,8.9112186E-1,2.2119734E0,1.0106376E0,-1.316302E-1,5.389763E-1,4.0083742E-1,1.06426235E-2,-1.8054478E0,1.6301253E0,1.2276E-1,-2.3617421E-1,2.5880172E0,-3.9813466E-2,7.54627E-2,1.2437665E-2,8.935165E-2,2.2755578E-1,-1.1827408E0,1.7384918E0,1.7927854E-1,-1.3183421E0,-3.1491455E-2,7.642209E-2,6.832876E-1,1.4168446E-1,-1.1360313E0,1.0347275E-1,1.1172982E-2,-7.3451185E-1,2.4835212E0,-4.011576E-2,-1.3846654E-1,1.030448E0,3.2344803E-2,-5.650702E-1,6.53592E-1,-3.7928518E-2,2.564448E-1,-7.8043664E-1,2.2665014E0,1.6910818E0,-1.3244402E-1,1.4297265E0,1.2245128E0,-4.3399032E-2,-1.4291435E-1,7.988851E-3,-2.595462E-3,-1.3103376E-1,2.3871887E-2,5.8506843E-2,1.1214549E-2,-1.0326751E-1,-3.3824395E-2,5.407348E-2,-5.5901755E-2,-1.2610994E-1,-1.22488E-2,2.6012246E-2,1.21181644E-1,-8.432108E-2,5.869749E-2,2.142996E-2,-1.1688306E-2,-7.843538E-2,-4.9707233E-3,4.8373383E-2,-7.427474E-2,1.4542514E-1,2.3272123E-2,-6.243972E-2,-3.361017E-3,-1.02494145E-2,-8.151478E-2,6.1806984E-2,-1.4463067E-2],"split_indices":[14,9,2,7,8,8,12,0,5,10,12,14,4,13,10,0,6,12,6,1,6,0,5,11,4,8,10,2,9,11,0,10,14,0,2,0,0,11,12,0,0,5,0,1,4,1,4,7,2,13,0,14,2,0,0,0,0,0,0,0,0,0,0,0,0,0,0,0,0,0,0,0,0,0,0,0,0,0,0,0,0,0,0,0,0],"split_type":[0,0,0,0,0,0,0,0,0,0,0,0,0,0,0,0,0,0,0,0,0,0,0,0,0,0,0,0,0,0,0,0,0,0,0,0,0,0,0,0,0,0,0,0,0,0,0,0,0,0,0,0,0,0,0,0,0,0,0,0,0,0,0,0,0,0,0,0,0,0,0,0,0,0,0,0,0,0,0,0,0,0,0,0,0],"sum_hessian":[2.3789011E3,1.9322716E3,4.4662955E2,8.637762E0,1.9236338E3,2.336472E1,4.2326483E2,1.2353884E0,7.4023733E0,1.88029E3,4.334382E1,7.4256806E0,1.5939038E1,2.5819662E2,1.650682E2,1.2216846E0,6.180689E0,1.6740822E3,2.062078E2,2.9520707E0,4.039175E1,1.7152951E0,5.710386E0,7.832971E0,8.106068E0,2.4230836E2,1.5888272E1,6.901444E1,9.6053764E1,4.6992555E0,1.4814333E0,1.6680941E3,5.988074E0,2.7426534E0,2.0346513E2,1.2373756E0,1.7146951E0,2.3959974E1,1.6431776E1,1.1687324E0,4.541653E0,5.6287856E0,2.2041852E0,3.2130797E0,4.8929877E0,2.0773097E2,3.457739E1,9.663985E0,6.224286E0,6.4110085E1,4.904351E0,4.3955433E1,5.209833E1,1.4840039E0,3.2152517E0,7.129614E2,9.551327E2,4.738454E0,1.2496195E0,2.0976292E1,1.8248885E2,8.4205265E0,1.5539447E1,8.338381E0,8.093394E0,4.3958516E0,1.2329344E0,1.7245103E0,1.4885695E0,3.1479464E0,1.7450414E0,9.219259E1,1.1553838E2,1.4921834E1,1.9655556E1,7.4172E0,2.2467856E0,4.9791713E0,1.2451153E0,3.7502254E1,2.6607834E1,2.9170828E1,1.4784604E1,2.6606813E1,2.5491518E1],"tree_param":{"num_deleted":"0","num_feature":"15","num_nodes":"85","size_leaf_vector":"1"}},{"base_weights":[-4.7894273E-4,2.5716834E-3,-6.877946E-1,6.534942E-2,-2.9638886E-2,-1.2963234E-1,-2.2137101E-1,5.675045E-2,7.4651587E-1,-3.136803E-1,-1.37201715E-2,2.6024622E-1,-1.1085963E-1,5.5579835E-1,4.4614904E-2,9.8981273E-1,-3.759819E-2,7.201287E-1,-3.8055894E-1,-9.635616E-3,-8.598952E-1,-1.1555968E-1,7.5322405E-2,8.139431E-2,1.0699067E0,-2.4907616E-1,7.210444E-2,2.3680209E-1,1.4727174E-1,-7.078209E-2,1.3193583E-1,-5.49868E-1,-1.3004808E-1,-2.558599E-2,2.0190974E-1,-3.6777833E-1,-1.2275487E-1,4.5444503E-2,-6.442494E-2,3.713315E-2,-9.199162E-2,1.2102182E-1,2.8381944E-2,-1.1882591E-2,-9.073683E-2,5.258391E-3,3.4934357E-2,7.798024E-2,-6.5109104E-2,-3.228606E-2,-1.1186471E-1,2.6494447E-2,-4.052544E-2,-3.175064E-4,-2.5531659E-2,1.6745882E-2,1.2273753E-1,6.4734384E-2,-9.597902E-2],"categories":[],"categories_nodes":[],"categories_segments":[],"categories_sizes":[],"default_left":[0,0,0,0,0,0,0,0,0,0,0,0,0,0,0,0,0,0,0,0,0,0,0,0,0,0,0,0,0,0,0,0,0,0,0,0,0,0,0,0,0,0,0,0,0,0,0,0,0,0,0,0,0,0,0,0,0,0,0],"id":11,"left_children":[1,3,5,7,9,-1,11,13,15,17,19,21,-1,23,25,27,-1,29,31,33,35,37,-1,39,41,43,45,47,-1,-1,-1,49,51,53,55,57,-1,-1,-1,-1,-1,-1,-1,-1,-1,-1,-1,-1,-1,-1,-1,-1,-1,-1,-1,-1,-1,-1,-1],"loss_changes":[4.989147E0,4.792543E0,2.6973972E0,4.6650577E0,7.0784526E0,0E0,3.3472285E0,4.788344E0,3.0858994E0,6.018469E0,5.1220045E0,1.0966417E0,0E0,4.4932675E0,6.29072E0,2.7210436E0,0E0,5.5493555E0,3.266035E0,4.993059E0,8.366251E-1,1.4859126E0,0E0,3.4913895E0,6.4152527E-1,5.613283E0,3.8307538E0,2.672524E0,0E0,0E0,0E0,5.6615553E0,3.699475E0,7.080798E0,3.4599667E0,3.3088999E0,0E0,0E0,0E0,0E0,0E0,0E0,0E0,0E0,0E0,0E0,0E0,0E0,0E0,0E0,0E0,0E0,0E0,0E0,0E0,0E0,0E0,0E0,0E0],"parents":[2147483647,0,0,1,1,2,2,3,3,4,4,6,6,7,7,8,8,9,9,10,10,11,11,13,13,14,14,15,15,17,17,18,18,19,19,20,20,21,21,23,23,24,24,25,25,26,26,27,27,31,31,32,32,33,33,34,34,35,35],"right_children":[2,4,6,8,10,-1,12,14,16,18,20,22,-1,24,26,28,-1,30,32,34,36,38,-1,40,42,44,46,48,-1,-1,-1,50,52,54,56,58,-1,-1,-1,-1,-1,-1,-1,-1,-1,-1,-1,-1,-1,-1,-1,-1,-1,-1,-1,-1,-1,-1,-1],"split_conditions":[2.4835212E0,-5.0611234E-1,1.4279778E-1,-5.182222E-1,-9.68102E-1,-1.2963234E-1,4.8281038E-1,-1.7938863E0,2.0668958E-1,-1.0992502E0,1.2509395E0,2.459735E0,-1.1085963E-1,-2.2702687E0,-9.6886194E-1,-1.7220698E-1,-3.759819E-2,-2.3133356E-2,9.4447756E-1,9.612963E-1,-5.03021E-1,5.111279E-1,7.5322405E-2,-2.9538457E0,7.528669E-2,-1.2724233E-1,3.6156577E-1,-1.874152E-1,1.4727174E-1,-7.078209E-2,1.3193583E-1,1.24115996E-1,5.7992727E-1,8.6523885E-1,2.5069845E0,6.0293168E-2,-1.2275487E-1,4.5444503E-2,-6.442494E-2,3.713315E-2,-9.199162E-2,1.2102182E-1,2.8381944E-2,-1.1882591E-2,-9.073683E-2,5.258391E-3,3.4934357E-2,7.798024E-2,-6.5109104E-2,-3.228606E-2,-1.1186471E-1,2.6494447E-2,-4.052544E-2,-3.175064E-4,-2.5531659E-2,1.6745882E-2,1.2273753E-1,6.4734384E-2,-9.597902E-2],"split_indices":[12,14,2,14,3,0,5,12,5,13,10,3,0,10,9,9,0,9,9,10,3,14,0,12,3,1,3,0,0,0,0,13,11,8,13,9,0,0,0,0,0,0,0,0,0,0,0,0,0,0,0,0,0,0,0,0,0,0,0],"split_type":[0,0,0,0,0,0,0,0,0,0,0,0,0,0,0,0,0,0,0,0,0,0,0,0,0,0,0,0,0,0,0,0,0,0,0,0,0,0,0,0,0,0,0,0,0,0,0,0,0,0,0,0,0,0,0,0,0,0,0],"sum_hessian":[2.3776309E3,2.3681165E3,9.514542E0,8.0268024E2,1.5654362E3,3.3563411E0,6.1582003E0,7.937434E2,8.936821E0,8.2084145E1,1.4833519E3,4.4495187E0,1.7086816E0,1.7780008E1,7.759634E2,7.442002E0,1.4948189E0,4.3940043E0,7.769014E1,1.4772327E3,6.119335E0,2.9592314E0,1.4902872E0,9.849501E0,7.9305086E0,6.5724045E1,7.102394E2,3.4901133E0,3.9518886E0,1.24529E0,3.1487145E0,4.5645447E1,3.2044693E1,1.374477E3,1.0275557E2,3.472121E0,2.647214E0,1.4915519E0,1.4676795E0,8.125774E0,1.7237262E0,6.271533E0,1.6589755E0,5.5853355E1,9.870687E0,6.64632E2,4.5607365E1,2.2412138E0,1.2488995E0,3.3745003E1,1.1900446E1,1.3173947E1,1.8870749E1,1.253234E3,1.2124302E2,1.0054115E2,2.2144196E0,1.2445787E0,2.2275424E0],"tree_param":{"num_deleted":"0","num_feature":"15","num_nodes":"59","size_leaf_vector":"1"}},{"base_weights":[-5.001861E-4,2.0595651E-2,-9.17086E-2,-6.131673E-1,2.3759084E-2,-5.2335215E-1,-6.6971965E-2,1.627311E-1,-1.0184708E0,3.03804E-2,-2.598665E-1,-1.0750916E0,-2.207367E-1,-1.19134046E-1,1.6049175E-1,6.1749645E-2,-3.0316768E-2,-1.2570454E-1,-3.8860593E-2,8.188726E-3,1.386116E-1,6.1834204E-1,-3.3775732E-1,-3.7406E-2,-1.2004277E0,-6.2905926E-1,1.9769898E-1,-2.2295695E-2,-2.4500531E-1,5.0739384E-1,-3.7469946E-2,1.2247028E-2,-8.9956516E-1,8.907697E-1,1.2223793E-1,9.7948045E-2,9.412528E-3,-5.6103E-1,5.4811942E-3,-3.6526337E-2,-1.308861E-1,-9.951494E-1,3.1345382E-2,7.807666E-1,-3.501066E-1,1.8268512E-1,-2.4764583E-1,-7.6694393E-1,-1.6397506E-1,5.980142E-1,-5.7513E-2,6.1080847E-2,-9.288014E-1,7.1345926E-3,-3.7800856E-3,-1.1907208E-1,2.3964418E-2,2.6757235E-2,1.1951666E-1,4.068775E-2,8.295476E-3,-9.3523376E-2,-3.1567004E-2,4.6909805E-2,-4.7499824E-2,-1.1783593E-1,-1.1301143E-2,-1.1859925E-2,1.1356392E-1,-9.369071E-2,5.4948628E-2,-3.6770497E-2,3.201457E-2,-7.190501E-3,-5.5488694E-2,-1.0134603E-1,4.7000542E-2,6.933629E-2,-2.014876E-2,8.967299E-2,3.5064775E-2,-1.2232171E-2,5.871237E-2,6.7491042E-3,-1.3482925E-1],"categories":[],"categories_nodes":[],"categories_segments":[],"categories_sizes":[],"default_left":[0,0,0,0,0,0,0,0,0,0,0,0,0,0,0,0,0,0,0,0,0,0,0,0,0,0,0,0,0,0,0,0,0,0,0,0,0,0,0,0,0,0,0,0,0,0,0,0,0,0,0,0,0,0,0,0,0,0,0,0,0,0,0,0,0,0,0,0,0,0,0,0,0,0,0,0,0,0,0,0,0,0,0,0,0],"id":12,"left_children":[1,3,5,7,9,11,13,15,17,19,21,23,25,27,29,-1,-1,-1,-1,31,33,35,37,-1,39,41,43,45,47,49,51,53,55,57,59,-1,-1,61,63,-1,-1,65,-1,67,69,71,73,75,77,79,-1,81,83,-1,-1,-1,-1,-1,-1,-1,-1,-1,-1,-1,-1,-1,-1,-1,-1,-1,-1,-1,-1,-1,-1,-1,-1,-1,-1,-1,-1,-1,-1,-1,-1],"loss_changes":[4.576229E0,3.8871834E0,4.735204E0,3.1944551E0,3.6191988E0,3.7812896E0,5.0462284E0,1.0700688E0,4.8286867E-1,4.5143185E0,3.2167947E0,2.7732563E-1,2.9950557E0,4.202604E0,5.4759836E0,0E0,0E0,0E0,0E0,5.7623143E0,3.829924E0,6.528783E-1,3.1480055E0,0E0,1.16018295E-1,3.328577E0,3.1668613E0,9.109015E0,6.218692E0,3.182858E0,4.5826135E0,4.6026855E0,2.5945387E0,9.426217E-1,3.479135E0,0E0,0E0,1.9885192E0,4.046228E0,0E0,0E0,9.232297E-1,0E0,1.634052E0,3.3448637E0,7.935213E0,5.0296435E0,6.5406046E0,4.356803E0,1.6950064E0,0E0,4.638301E0,2.2606149E0,0E0,0E0,0E0,0E0,0E0,0E0,0E0,0E0,0E0,0E0,0E0,0E0,0E0,0E0,0E0,0E0,0E0,0E0,0E0,0E0,0E0,0E0,0E0,0E0,0E0,0E0,0E0,0E0,0E0,0E0,0E0,0E0],"parents":[2147483647,0,0,1,1,2,2,3,3,4,4,5,5,6,6,7,7,8,8,9,9,10,10,11,11,12,12,13,13,14,14,19,19,20,20,21,21,22,22,24,24,25,25,26,26,27,27,28,28,29,29,30,30,31,31,32,32,33,33,34,34,37,37,38,38,41,41,43,43,44,44,45,45,46,46,47,47,48,48,49,49,51,51,52,52],"right_children":[2,4,6,8,10,12,14,16,18,20,22,24,26,28,30,-1,-1,-1,-1,32,34,36,38,-1,40,42,44,46,48,50,52,54,56,58,60,-1,-1,62,64,-1,-1,66,-1,68,70,72,74,76,78,80,-1,82,84,-1,-1,-1,-1,-1,-1,-1,-1,-1,-1,-1,-1,-1,-1,-1,-1,-1,-1,-1,-1,-1,-1,-1,-1,-1,-1,-1,-1,-1,-1,-1,-1],"split_conditions":[9.7151726E-1,-1.4010386E0,3.034824E-1,-1.4333769E0,2.3017533E0,-1.2785713E-1,1.1445999E0,5.796707E-2,-1.8054478E0,8.4846973E-1,2.2119734E0,1.0106376E0,-1.316302E-1,2.082899E-1,7.5135857E-1,6.1749645E-2,-3.0316768E-2,-1.2570454E-1,-3.8860593E-2,1.6301253E0,-1.0933179E0,-2.3617421E-1,2.5880172E0,-3.7406E-2,-1.1886158E0,1.2437665E-2,1.8014978E-1,-3.7928518E-2,-1.0172073E0,2.3114023E0,2.184396E0,7.642209E-2,6.832876E-1,-8.77668E-1,-1.1360313E0,9.7948045E-2,9.412528E-3,-7.3451185E-1,2.4835212E0,-3.6526337E-2,-1.308861E-1,1.030448E0,3.1345382E-2,1.0537262E0,6.53592E-1,-2.940794E-1,4.726213E-1,1.229377E0,-9.2599875E-1,1.4828238E0,-5.7513E-2,3.7876374E-1,1.1896988E0,7.1345926E-3,-3.7800856E-3,-1.1907208E-1,2.3964418E-2,2.6757235E-2,1.1951666E-1,4.068775E-2,8.295476E-3,-9.3523376E-2,-3.1567004E-2,4.6909805E-2,-4.7499824E-2,-1.1783593E-1,-1.1301143E-2,-1.1859925E-2,1.1356392E-1,-9.369071E-2,5.4948628E-2,-3.6770497E-2,3.201457E-2,-7.190501E-3,-5.5488694E-2,-1.0134603E-1,4.7000542E-2,6.933629E-2,-2.014876E-2,8.967299E-2,3.5064775E-2,-1.2232171E-2,5.871237E-2,6.7491042E-3,-1.3482925E-1],"split_indices":[14,9,2,13,8,8,1,2,6,10,12,14,4,8,5,0,0,0,0,12,9,1,6,0,11,11,4,1,11,14,4,10,14,1,2,0,0,11,12,0,0,5,0,14,4,4,4,6,11,14,0,10,14,0,0,0,0,0,0,0,0,0,0,0,0,0,0,0,0,0,0,0,0,0,0,0,0,0,0,0,0,0,0,0,0],"split_type":[0,0,0,0,0,0,0,0,0,0,0,0,0,0,0,0,0,0,0,0,0,0,0,0,0,0,0,0,0,0,0,0,0,0,0,0,0,0,0,0,0,0,0,0,0,0,0,0,0,0,0,0,0,0,0,0,0,0,0,0,0,0,0,0,0,0,0,0,0,0,0,0,0,0,0,0,0,0,0,0,0,0,0,0,0],"sum_hessian":[2.3763699E3,1.9306085E3,4.457614E2,8.631051E0,1.9219775E3,2.3068539E1,4.2269287E2,3.1669164E0,5.4641347E0,1.8790045E3,4.2972992E1,7.2667913E0,1.5801746E1,3.4423013E2,7.846276E1,1.4379454E0,1.7289709E0,3.240854E0,2.2232804E0,1.5601813E3,3.188232E2,2.935626E0,4.0037365E1,1.7064881E0,5.560303E0,7.7427607E0,8.058986E0,1.9521764E2,1.4901248E2,2.7939442E1,5.052332E1,1.5542194E3,5.961951E0,5.6548214E0,3.131684E2,1.2239616E0,1.7116644E0,2.3873446E1,1.616392E1,1.1409718E0,4.4193316E0,5.5364504E0,2.2063103E0,3.6978474E0,4.361139E0,1.02328186E2,9.288945E1,1.8887548E1,1.3012492E2,2.619424E1,1.7452012E0,4.633205E1,4.1912684E0,7.1247266E2,8.417467E2,4.7123632E0,1.2495879E0,2.472287E0,3.1825342E0,3.6844128E1,2.7632425E2,8.340893E0,1.5532554E1,8.238368E0,7.9255524E0,4.3062854E0,1.2301649E0,1.2346439E0,2.4632034E0,2.6143384E0,1.7468003E0,2.011461E1,8.221358E1,5.987513E1,3.3014324E1,1.5899546E1,2.9880033E0,4.721982E0,1.2540295E2,1.0676438E1,1.5517802E1,3.492357E1,1.1408482E1,1.4904819E0,2.7007866E0],"tree_param":{"num_deleted":"0","num_feature":"15","num_nodes":"85","size_leaf_vector":"1"}},{"base_weights":[-6.198883E-4,1.2066369E-1,-1.5442521E-2,1.4105907E-1,-9.5622927E-1,-1.2527106E-2,-6.1056596E-1,1.6068351E-1,-6.468885E-1,-1.349111E-1,1.2597407E-2,-1.5387979E-2,7.4293274E-1,-1.19990826E-1,-1.7321776E-1,1.2220336E-1,7.3632234E-1,3.8510885E-2,-1.1076095E0,-1.1227717E-2,-5.0050217E-1,3.7077107E-2,1.0405865E0,2.7945435E-1,-1.0314452E-1,2.3891196E-1,-5.7436854E-2,1.9032831E-1,1.072929E0,-1.3941906E-1,-3.773579E-2,-2.2905853E-2,1.7090638E-1,5.75398E-2,-1.3836418E0,5.0127685E-2,-4.472173E-2,1.22528814E-1,3.9639134E-2,-8.0927484E-2,7.371664E-2,1.417544E-2,6.395241E-2,1.0147276E-1,-1.438977E-2,5.286954E-2,-5.575196E-2,1.7922992E-2,1.3691987E-1,-3.4090944E-4,-1.9242652E-2,2.2273203E-2,-6.3597806E-2,7.8059174E-2,-2.717768E-2,-1.3918812E-2,-1.6299345E-1,4.7824897E-2,-6.1445292E-2],"categories":[],"categories_nodes":[],"categories_segments":[],"categories_sizes":[],"default_left":[0,0,0,0,0,0,0,0,0,0,0,0,0,0,0,0,0,0,0,0,0,0,0,0,0,0,0,0,0,0,0,0,0,0,0,0,0,0,0,0,0,0,0,0,0,0,0,0,0,0,0,0,0,0,0,0,0,0,0],"id":13,"left_children":[1,3,5,7,9,11,13,15,17,-1,-1,19,21,-1,23,25,27,-1,29,31,33,35,37,39,-1,41,43,45,47,-1,-1,49,51,53,55,-1,-1,-1,-1,57,-1,-1,-1,-1,-1,-1,-1,-1,-1,-1,-1,-1,-1,-1,-1,-1,-1,-1,-1],"loss_changes":[4.272807E0,5.81999E0,3.6669495E0,4.045504E0,2.2701874E0,4.5686545E0,2.4478993E0,5.436807E0,3.4662938E0,0E0,0E0,4.2358465E0,1.6370149E0,0E0,3.040047E0,4.9421763E0,2.6325188E0,0E0,4.5288134E-1,4.4381695E0,8.875054E0,9.890929E-1,1.7737007E-1,9.5437086E-1,0E0,5.463212E0,8.802678E0,2.0919633E0,2.225686E0,0E0,0E0,6.4774265E0,5.399558E0,3.044838E0,1.9034367E0,0E0,0E0,0E0,0E0,1.4680461E0,0E0,0E0,0E0,0E0,0E0,0E0,0E0,0E0,0E0,0E0,0E0,0E0,0E0,0E0,0E0,0E0,0E0,0E0,0E0],"parents":[2147483647,0,0,1,1,2,2,3,3,4,4,5,5,6,6,7,7,8,8,11,11,12,12,14,14,15,15,16,16,18,18,19,19,20,20,21,21,22,22,23,23,25,25,26,26,27,27,28,28,31,31,32,32,33,33,34,34,39,39],"right_children":[2,4,6,8,10,12,14,16,18,-1,-1,20,22,-1,24,26,28,-1,30,32,34,36,38,40,-1,42,44,46,48,-1,-1,50,52,54,56,-1,-1,-1,-1,58,-1,-1,-1,-1,-1,-1,-1,-1,-1,-1,-1,-1,-1,-1,-1,-1,-1,-1,-1],"split_conditions":[-1.2720873E0,1.4439195E-1,2.4835212E0,2.3374698E0,-6.6369057E-1,2.5880172E0,1.4279778E-1,1.6022153E0,-1.476038E0,-1.349111E-1,1.2597407E-2,2.313261E0,-1.2528183E0,-1.19990826E-1,4.8281038E-1,2.1830285E-1,-5.703727E-1,3.8510885E-2,-3.0094954E-1,9.612963E-1,4.448635E-2,-6.8889415E-1,1.8026767E0,2.459735E0,-1.0314452E-1,9.161554E-2,-7.130781E-1,3.294261E-1,-1.6783856E0,-1.3941906E-1,-3.773579E-2,8.4958553E-1,1.2583356E0,4.2203605E-1,-6.605439E-1,5.0127685E-2,-4.472173E-2,1.22528814E-1,3.9639134E-2,-2.076921E-1,7.371664E-2,1.417544E-2,6.395241E-2,1.0147276E-1,-1.438977E-2,5.286954E-2,-5.575196E-2,1.7922992E-2,1.3691987E-1,-3.4090944E-4,-1.9242652E-2,2.2273203E-2,-6.3597806E-2,7.8059174E-2,-2.717768E-2,-1.3918812E-2,-1.6299345E-1,4.7824897E-2,-6.1445292E-2],"split_indices":[14,5,12,8,2,6,2,13,2,0,0,12,5,0,5,8,11,0,4,10,11,2,9,3,0,7,1,4,14,0,0,8,10,9,1,0,0,0,0,5,0,0,0,0,0,0,0,0,0,0,0,0,0,0,0,0,0,0,0],"split_type":[0,0,0,0,0,0,0,0,0,0,0,0,0,0,0,0,0,0,0,0,0,0,0,0,0,0,0,0,0,0,0,0,0,0,0,0,0,0,0,0,0,0,0,0,0,0,0,0,0,0,0,0,0,0,0,0,0,0,0],"sum_hessian":[2.3747266E3,2.5784174E2,2.116885E3,2.5390207E2,3.9396615E0,2.1075813E3,9.303656E0,2.4850883E2,5.393231E0,2.7094083E0,1.2302533E0,2.100606E3,6.9752145E0,3.2204223E0,6.0832334E0,2.3407382E2,1.4435011E1,1.7152512E0,3.67798E0,2.0837593E3,1.6846842E1,2.402498E0,4.572716E0,4.4241157E0,1.659118E0,1.4169046E2,9.238337E1,6.102257E0,8.332754E0,1.9884406E0,1.6895393E0,1.959024E3,1.2473512E2,1.0896416E1,5.9504266E0,1.2087939E0,1.1937041E0,2.8527415E0,1.7199748E0,2.9357946E0,1.488321E0,1.1512409E2,2.656637E1,6.092804E0,8.6290565E1,4.4030995E0,1.6991574E0,2.4742174E0,5.858537E0,1.7578696E3,2.011544E2,1.1788726E2,6.8478603E0,2.9809856E0,7.9154305E0,1.241678E0,4.7087483E0,1.4840255E0,1.4517691E0],"tree_param":{"num_deleted":"0","num_feature":"15","num_nodes":"59","size_leaf_vector":"1"}},{"base_weights":[-6.065189E-4,1.8132117E-1,-9.623793E-3,1.2842936E-2,5.069147E-1,3.5050163E-1,-1.4141781E-2,2.2736605E-1,-2.676138E-1,7.290421E-1,-5.9989292E-2,5.75329E-1,-1.5567309E-1,-1.6314255E-1,2.0163117E-3,3.9271727E-2,7.030302E-1,-1.151322E0,-1.8163774E-2,2.2741752E-2,8.829107E-1,3.7806806E-1,-9.211764E-1,7.399496E-1,-2.6169533E-1,1.8694358E-1,-1.1815494E-1,-1.3543515E-2,-3.753307E-1,-3.544433E-1,9.673258E-3,4.0138432E-1,-3.63682E-1,9.658189E-1,-4.2482432E-2,-1.4296703E-1,-1.7620772E-2,5.567103E-1,-4.0340185E-1,6.855528E-1,-1.00588694E-1,-9.445212E-3,1.0051484E0,-8.4379435E-2,7.610904E-1,-2.7506938E-2,-1.2618922E-1,1.1063335E0,3.333677E-1,2.1386659E-2,-5.5556517E-2,-6.825092E-1,1.0195305E0,-1.332313E-1,5.799899E-1,-3.2259274E-1,-1.3734233E-1,8.3377236E-1,-5.3220737E-1,4.2698342E-1,3.8799962E-3,-1.1222839E-2,9.262233E-2,3.8020626E-2,-8.292373E-2,1.127388E-1,1.1980184E-2,9.7535625E-2,-6.39792E-2,-5.9725206E-2,8.067818E-2,-3.1637948E-2,1.209112E-1,6.748098E-2,-7.629367E-2,7.2753625E-3,1.0901525E-1,4.37922E-3,1.2150585E-1,1.2277156E-1,3.2618847E-2,-7.7210836E-2,5.9724774E-2,-2.9788062E-3,-9.9636056E-2,1.2317333E-1,3.5350427E-2,-7.822541E-3,-1.0260644E-1,8.345968E-2,-6.1070558E-2,3.936022E-2,-3.701075E-2,1.166194E-1,-9.381381E-3,-6.68987E-2,1.0088258E-1,1.1917823E-1,1.5479959E-2,8.128817E-3,-2.2256635E-3],"categories":[],"categories_nodes":[],"categories_segments":[],"categories_sizes":[],"default_left":[0,0,0,0,0,0,0,0,0,0,0,0,0,0,0,0,0,0,0,0,0,0,0,0,0,0,0,0,0,0,0,0,0,0,0,0,0,0,0,0,0,0,0,0,0,0,0,0,0,0,0,0,0,0,0,0,0,0,0,0,0,0,0,0,0,0,0,0,0,0,0,0,0,0,0,0,0,0,0,0,0,0,0,0,0,0,0,0,0,0,0,0,0,0,0,0,0,0,0,0,0],"id":14,"left_children":[1,3,5,7,9,11,13,15,17,19,21,23,25,27,29,31,33,35,37,39,41,43,45,47,49,51,-1,53,55,57,59,61,63,65,-1,-1,-1,67,69,71,-1,73,75,-1,77,-1,-1,79,81,-1,-1,83,85,87,89,91,-1,93,95,97,99,-1,-1,-1,-1,-1,-1,-1,-1,-1,-1,-1,-1,-1,-1,-1,-1,-1,-1,-1,-1,-1,-1,-1,-1,-1,-1,-1,-1,-1,-1,-1,-1,-1,-1,-1,-1,-1,-1,-1,-1],"loss_changes":[3.8975465E0,6.148156E0,3.6878953E0,4.5710435E0,4.858279E0,3.2856758E0,5.38484E0,3.8209958E0,7.2423515E0,2.9735537E0,4.7573385E0,2.902625E0,3.5335474E0,6.9408402E0,5.5131907E0,4.7984915E0,4.005638E0,1.7124166E0,6.140212E0,4.7488937E0,2.4738312E0,4.5995517E0,5.8442235E-1,2.1174364E0,6.736187E-1,6.435331E0,0E0,9.267785E0,4.3176374E0,9.415819E0,4.7783976E0,4.759052E0,5.7234945E0,1.2514849E0,0E0,0E0,0E0,6.2031612E0,4.369922E0,2.5938678E0,0E0,2.4289687E0,1.4962883E0,0E0,2.2143335E0,0E0,0E0,3.900318E-1,3.1864343E0,0E0,0E0,8.875594E-1,1.9367361E-1,5.2471094E0,7.1480713E0,3.1134567E0,0E0,1.9340425E0,8.591768E0,5.449161E0,3.9493282E0,0E0,0E0,0E0,0E0,0E0,0E0,0E0,0E0,0E0,0E0,0E0,0E0,0E0,0E0,0E0,0E0,0E0,0E0,0E0,0E0,0E0,0E0,0E0,0E0,0E0,0E0,0E0,0E0,0E0,0E0,0E0,0E0,0E0,0E0,0E0,0E0,0E0,0E0,0E0,0E0],"parents":[2147483647,0,0,1,1,2,2,3,3,4,4,5,5,6,6,7,7,8,8,9,9,10,10,11,11,12,12,13,13,14,14,15,15,16,16,17,17,18,18,19,19,20,20,21,21,22,22,23,23,24,24,25,25,27,27,28,28,29,29,30,30,31,31,32,32,33,33,37,37,38,38,39,39,41,41,42,42,44,44,47,47,48,48,51,51,52,52,53,53,54,54,55,55,57,57,58,58,59,59,60,60],"right_children":[2,4,6,8,10,12,14,16,18,20,22,24,26,28,30,32,34,36,38,40,42,44,46,48,50,52,-1,54,56,58,60,62,64,66,-1,-1,-1,68,70,72,-1,74,76,-1,78,-1,-1,80,82,-1,-1,84,86,88,90,92,-1,94,96,98,100,-1,-1,-1,-1,-1,-1,-1,-1,-1,-1,-1,-1,-1,-1,-1,-1,-1,-1,-1,-1,-1,-1,-1,-1,-1,-1,-1,-1,-1,-1,-1,-1,-1,-1,-1,-1,-1,-1,-1,-1],"split_conditions":[-1.6415372E0,-1.7902728E0,-2.9538457E0,2.1201663E-1,-1.0566661E0,2.0668958E-1,-9.6886194E-1,6.546922E-2,-5.225233E-1,-6.3866544E-1,-1.7071915E-1,-1.0447664E0,1.8744954E0,-1.0933179E0,-1.476038E0,-1.5913363E-1,-1.8366066E0,6.29394E-1,2.102328E-1,1.2300866E-1,-1.6587511E0,-7.068997E-1,2.8513116E-1,-2.1838589E0,-9.066201E-1,-1.22332916E-1,-1.1815494E-1,2.3846395E-1,6.2260336E-1,-7.4730295E-1,-1.4706098E0,4.4399372E-1,3.5696754E-1,-3.330219E-1,-4.2482432E-2,-1.4296703E-1,-1.7620772E-2,-1.096028E0,1.9474359E0,-5.3668517E-1,-1.00588694E-1,-1.7227092E0,-6.6549563E-1,-8.4379435E-2,3.519239E-1,-2.7506938E-2,-1.2618922E-1,2.045401E0,-2.600136E-1,2.1386659E-2,-5.5556517E-2,-1.1250707E0,4.8281038E-1,2.031923E-1,1.2143741E0,-1.251061E0,-1.3734233E-1,6.29394E-1,2.269665E0,-7.5892794E-1,-6.1884254E-1,-1.1222839E-2,9.262233E-2,3.8020626E-2,-8.292373E-2,1.127388E-1,1.1980184E-2,9.7535625E-2,-6.39792E-2,-5.9725206E-2,8.067818E-2,-3.1637948E-2,1.209112E-1,6.748098E-2,-7.629367E-2,7.2753625E-3,1.0901525E-1,4.37922E-3,1.2150585E-1,1.2277156E-1,3.2618847E-2,-7.7210836E-2,5.9724774E-2,-2.9788062E-3,-9.9636056E-2,1.2317333E-1,3.5350427E-2,-7.822541E-3,-1.0260644E-1,8.345968E-2,-6.1070558E-2,3.936022E-2,-3.701075E-2,1.166194E-1,-9.381381E-3,-6.68987E-2,1.0088258E-1,1.1917823E-1,1.5479959E-2,8.128817E-3,-2.2256635E-3],"split_indices":[2,2,12,8,14,5,9,7,13,11,1,9,11,9,2,7,2,11,13,12,3,13,12,0,14,4,0,4,4,9,11,11,11,13,0,0,0,14,13,9,0,4,1,0,6,0,0,11,4,0,0,11,5,4,14,2,0,11,11,9,14,0,0,0,0,0,0,0,0,0,0,0,0,0,0,0,0,0,0,0,0,0,0,0,0,0,0,0,0,0,0,0,0,0,0,0,0,0,0,0,0],"split_type":[0,0,0,0,0,0,0,0,0,0,0,0,0,0,0,0,0,0,0,0,0,0,0,0,0,0,0,0,0,0,0,0,0,0,0,0,0,0,0,0,0,0,0,0,0,0,0,0,0,0,0,0,0,0,0,0,0,0,0,0,0,0,0,0,0,0,0,0,0,0,0,0,0,0,0,0,0,0,0,0,0,0,0,0,0,0,0,0,0,0,0,0,0,0,0,0,0,0,0,0,0],"sum_hessian":[2.3737766E3,1.1119795E2,2.2625786E3,7.39645E1,3.7233456E1,2.708487E1,2.2354937E3,4.2015717E1,3.1948782E1,2.6546038E1,1.0687419E1,1.8660032E1,8.424838E0,2.1781654E2,2.0176772E3,3.088519E1,1.1130526E1,6.237216E0,2.5711567E1,4.9539247E0,2.1592112E1,7.4558616E0,3.2315578E0,1.5690167E1,2.969865E0,6.928625E0,1.4962131E0,1.2837332E2,8.944322E1,4.1476997E1,1.9762002E3,1.626901E1,1.4616179E1,9.143719E0,1.9868072E0,4.4895177E0,1.7476981E0,1.0137984E1,1.5573582E1,3.2155004E0,1.7384244E0,2.7125764E0,1.8879536E1,1.4923123E0,5.963549E0,1.7397531E0,1.4918048E0,7.3477836E0,8.342383E0,1.2382607E0,1.7316043E0,3.4774513E0,3.4511735E0,1.0747599E2,2.0897326E1,8.621114E1,3.232079E0,4.9174314E0,3.6559563E1,2.6063265E1,1.950137E3,8.619777E0,7.649234E0,5.6968255E0,8.9193535E0,7.3982463E0,1.7454726E0,7.647142E0,2.4908423E0,1.3859941E1,1.7136419E0,1.2393938E0,1.9761064E0,1.4763277E0,1.2362486E0,1.732453E0,1.7147083E1,2.736373E0,3.2271762E0,5.8620157E0,1.4857677E0,1.2364644E0,7.1059194E0,1.484671E0,1.9927803E0,1.9731356E0,1.478038E0,1.0226334E2,5.2126513E0,1.74624E1,3.434925E0,4.9105244E0,8.130062E1,3.4307196E0,1.4867117E0,3.4098885E1,2.460678E0,5.954199E0,2.0109066E1,4.917181E2,1.4584188E3],"tree_param":{"num_deleted":"0","num_feature":"15","num_nodes":"101","size_leaf_vector":"1"}},{"base_weights":[-4.8073631E-4,1.4387961E-2,-9.758906E-2,8.517354E-3,4.2106465E-1,-7.823163E-2,-7.0798504E-1,1.7692417E-2,-1.6336526E-1,-5.274031E-1,7.232585E-1,-1.2074379E-1,2.124606E-1,1.8995452E-1,-1.442406E-1,4.9909083E-3,1.7097813E-1,-9.370174E-2,-7.1216005E-1,7.5759724E-2,-9.6224576E-1,1.0649307E0,2.4478242E-1,-6.635475E-1,-9.01113E-2,6.0721636E-1,-5.0309163E-2,8.101528E-2,-5.4647025E-2,1.2400368E-2,-2.4137117E-1,6.444517E-1,8.105478E-2,-7.551495E-1,-2.1291025E-2,-1.010892E0,2.5717646E-1,-1.1228523E-2,-1.14873044E-1,-2.9772848E-2,1.2320429E0,-6.1531533E-2,5.109627E-1,-1.3197139E-1,-3.029782E-1,-7.415256E-2,-1.0877424E-1,1.0867162E0,1.1027286E-1,-2.2617953E-1,8.041588E-1,8.602569E-4,1.0771044E-1,-9.206353E-3,-7.88159E-2,8.636019E-2,-2.28248E-2,1.1321535E-1,2.7951475E-3,-9.5534116E-2,2.8905917E-2,-1.0447021E-2,4.466125E-2,-1.2607652E-1,-1.7730473E-2,1.07662976E-1,-6.757026E-2,1.3354997E-1,2.0067455E-2,-2.8834423E-2,8.763926E-2,2.455227E-2,-8.486842E-2,-1.6190581E-2,9.245812E-3,1.2834577E-1,2.4302011E-2,-9.500622E-2,6.0389627E-2,1.6757563E-2,-8.018465E-2,9.836382E-2,1.8667195E-2],"categories":[],"categories_nodes":[],"categories_segments":[],"categories_sizes":[],"default_left":[0,0,0,0,0,0,0,0,0,0,0,0,0,0,0,0,0,0,0,0,0,0,0,0,0,0,0,0,0,0,0,0,0,0,0,0,0,0,0,0,0,0,0,0,0,0,0,0,0,0,0,0,0,0,0,0,0,0,0,0,0,0,0,0,0,0,0,0,0,0,0,0,0,0,0,0,0,0,0,0,0,0,0],"id":15,"left_children":[1,3,5,7,9,11,13,15,17,19,21,23,25,27,-1,29,31,33,35,-1,37,39,41,43,45,47,49,-1,-1,51,53,55,57,59,61,63,65,-1,-1,-1,67,-1,69,-1,71,73,-1,75,77,79,81,-1,-1,-1,-1,-1,-1,-1,-1,-1,-1,-1,-1,-1,-1,-1,-1,-1,-1,-1,-1,-1,-1,-1,-1,-1,-1,-1,-1,-1,-1,-1,-1],"loss_changes":[3.4283516E0,4.912525E0,3.6698887E0,3.2056499E0,8.774135E0,3.8160236E0,6.5830636E0,3.7545667E0,3.8715165E0,5.005562E0,3.4385862E0,4.4000187E0,4.127345E0,2.812204E0,0E0,3.2564125E0,6.2306905E0,4.4171743E0,3.5761032E0,0E0,8.47229E-1,3.304987E0,2.7698476E0,2.9529119E0,3.9799626E0,3.6593575E0,3.8839002E0,0E0,0E0,6.9909315E0,4.1798167E0,4.674222E0,6.954336E0,2.1792693E0,3.333676E0,1.6420813E0,3.3992476E0,0E0,0E0,0E0,9.7912216E-1,0E0,2.8046372E0,0E0,3.3343053E0,3.7009277E0,0E0,1.0091648E0,5.232721E0,4.94216E0,3.06731E-1,0E0,0E0,0E0,0E0,0E0,0E0,0E0,0E0,0E0,0E0,0E0,0E0,0E0,0E0,0E0,0E0,0E0,0E0,0E0,0E0,0E0,0E0,0E0,0E0,0E0,0E0,0E0,0E0,0E0,0E0,0E0,0E0],"parents":[2147483647,0,0,1,1,2,2,3,3,4,4,5,5,6,6,7,7,8,8,9,9,10,10,11,11,12,12,13,13,15,15,16,16,17,17,18,18,20,20,21,21,22,22,23,23,24,24,25,25,26,26,29,29,30,30,31,31,32,32,33,33,34,34,35,35,36,36,40,40,42,42,44,44,45,45,47,47,48,48,49,49,50,50],"right_children":[2,4,6,8,10,12,14,16,18,20,22,24,26,28,-1,30,32,34,36,-1,38,40,42,44,46,48,50,-1,-1,52,54,56,58,60,62,64,66,-1,-1,-1,68,-1,70,-1,72,74,-1,76,78,80,82,-1,-1,-1,-1,-1,-1,-1,-1,-1,-1,-1,-1,-1,-1,-1,-1,-1,-1,-1,-1,-1,-1,-1,-1,-1,-1,-1,-1,-1,-1,-1,-1],"split_conditions":[1.1439135E0,1.1046897E0,2.3203409E0,9.7151726E-1,-1.4896269E-1,1.2005278E0,1.1838267E0,1.1602672E0,1.2420715E0,-7.6993644E-1,3.4092343E-1,3.7393463E-1,1.6492969E0,7.5135857E-1,-1.442406E-1,2.2119734E0,1.3037952E0,-1.1004527E0,1.0634385E0,7.5759724E-2,-3.063946E-1,-9.539962E-1,4.0601447E-1,1.2143741E0,2.5744963E0,1.369279E0,2.5053208E0,8.101528E-2,-5.4647025E-2,2.181262E0,-4.7527876E-2,1.4826154E0,-4.3889832E-1,1.048022E-1,1.6678566E0,4.8399404E-1,-9.2337143E-1,-1.1228523E-2,-1.14873044E-1,-2.9772848E-2,2.0830243E0,-6.1531533E-2,1.1195047E0,-1.3197139E-1,3.3653438E-1,5.111708E-1,-1.0877424E-1,1.527346E0,1.6916125E0,1.3676132E0,2.2665014E0,8.602569E-4,1.0771044E-1,-9.206353E-3,-7.88159E-2,8.636019E-2,-2.28248E-2,1.1321535E-1,2.7951475E-3,-9.5534116E-2,2.8905917E-2,-1.0447021E-2,4.466125E-2,-1.2607652E-1,-1.7730473E-2,1.07662976E-1,-6.757026E-2,1.3354997E-1,2.0067455E-2,-2.8834423E-2,8.763926E-2,2.455227E-2,-8.486842E-2,-1.6190581E-2,9.245812E-3,1.2834577E-1,2.4302011E-2,-9.500622E-2,6.0389627E-2,1.6757563E-2,-8.018465E-2,9.836382E-2,1.8667195E-2],"split_indices":[14,14,4,14,4,4,2,3,11,13,0,2,3,5,0,12,4,11,14,0,3,13,6,14,13,11,5,0,0,0,1,2,9,1,5,13,0,0,0,0,3,0,14,0,5,1,0,13,11,14,2,0,0,0,0,0,0,0,0,0,0,0,0,0,0,0,0,0,0,0,0,0,0,0,0,0,0,0,0,0,0,0,0],"split_type":[0,0,0,0,0,0,0,0,0,0,0,0,0,0,0,0,0,0,0,0,0,0,0,0,0,0,0,0,0,0,0,0,0,0,0,0,0,0,0,0,0,0,0,0,0,0,0,0,0,0,0,0,0,0,0,0,0,0,0,0,0,0,0,0,0,0,0,0,0,0,0,0,0,0,0,0,0,0,0,0,0,0,0],"sum_hessian":[2.3724392E3,2.0581572E3,3.1428195E2,2.0298756E3,2.8281458E1,3.0571503E2,8.566944E0,1.9278638E3,1.02011955E2,6.653497E0,2.162796E1,2.6722015E2,3.8494858E1,4.187929E0,4.379015E0,1.7812952E3,1.4656851E2,9.1560135E1,1.045182E1,1.4945956E0,5.1589017E0,1.1902736E1,9.7252245E0,1.31709585E1,2.540492E2,1.4860014E1,2.3634844E1,2.2190146E0,1.9689144E0,1.730208E3,5.108719E1,2.2409431E1,1.2415908E2,8.10401E0,8.345613E1,7.956806E0,2.495014E0,1.2164907E0,3.942411E0,1.2148721E0,1.0687863E1,1.9884329E0,7.736792E0,3.7275162E0,9.443442E0,2.5110666E2,2.9425333E0,6.958739E0,7.901275E0,2.0210356E1,3.4244869E0,1.7250627E3,5.1452193E0,4.1047104E1,1.0040084E1,1.7919865E1,4.4895663E0,4.9938393E0,1.19165245E2,6.871699E0,1.2323108E0,7.1518936E1,1.193719E1,5.7274957E0,2.2293105E0,1.2462221E0,1.2487917E0,9.4455E0,1.242363E0,2.4935596E0,5.2432327E0,4.9839997E0,4.4594426E0,1.6449564E2,8.661104E1,5.220207E0,1.7385317E0,2.2161567E0,5.685118E0,1.2422376E1,7.787981E0,2.19385E0,1.2306367E0],"tree_param":{"num_deleted":"0","num_feature":"15","num_nodes":"83","size_leaf_vector":"1"}},{"base_weights":[-4.907038E-4,1.9182942E-3,-5.646057E-1,1.6395287E-1,-6.1131255E-3,-1.1357414E-1,-1.496367E-1,1.1799447E-2,4.595762E-1,5.5043507E-1,-8.594506E-3,2.810483E-1,-9.811316E-2,2.0762023E-1,-2.4374753E-1,6.668418E-1,-6.411565E-2,7.797641E-1,-5.944124E-2,-1.19567804E-1,4.3041394E-3,-5.3817984E-2,6.950776E-2,8.50467E-3,5.8684766E-1,-1.0642766E0,-1.3034411E-2,1.8294867E-2,8.094381E-1,3.4625128E-1,-8.6469203E-1,2.1831569E-1,9.8948365E-1,2.171994E-2,-3.4089273E-1,-3.1512392E-1,1.119501E-2,4.5512155E-2,-5.5476397E-2,3.6698543E-2,-4.6922665E-2,1.2009179E-1,-2.2908455E-2,-1.3217506E-1,-1.6556302E-2,5.0655503E-2,-3.5872407E-2,6.422263E-2,-9.39553E-2,-1.0001682E-3,9.230601E-2,-7.932054E-2,7.063849E-2,-2.578461E-2,-1.1852505E-1,9.695893E-2,-6.935226E-2,1.2821001E-1,2.5112763E-2,-5.9189647E-3,5.093518E-2,-2.9233096E-2,-1.2672015E-1,7.758536E-2,-4.766147E-2,3.9322793E-2,5.8731454E-4],"categories":[],"categories_nodes":[],"categories_segments":[],"categories_sizes":[],"default_left":[0,0,0,0,0,0,0,0,0,0,0,0,0,0,0,0,0,0,0,0,0,0,0,0,0,0,0,0,0,0,0,0,0,0,0,0,0,0,0,0,0,0,0,0,0,0,0,0,0,0,0,0,0,0,0,0,0,0,0,0,0,0,0,0,0,0,0],"id":16,"left_children":[1,3,5,7,9,-1,11,13,15,17,19,21,-1,23,25,27,29,31,-1,33,35,37,-1,39,41,43,45,47,49,51,53,55,57,59,61,63,65,-1,-1,-1,-1,-1,-1,-1,-1,-1,-1,-1,-1,-1,-1,-1,-1,-1,-1,-1,-1,-1,-1,-1,-1,-1,-1,-1,-1,-1,-1],"loss_changes":[3.2248988E0,3.0763817E0,2.2216315E0,5.016082E0,3.1155226E0,0E0,2.7811823E0,3.7902143E0,4.157422E0,3.0926032E0,3.2119267E0,7.8418636E-1,0E0,3.2305708E0,6.210696E0,2.5049887E0,4.130474E0,8.172364E-1,0E0,7.313814E0,4.4297643E0,1.2483149E0,0E0,5.1577864E0,7.6593127E0,1.4481096E0,4.9733453E0,4.149818E0,2.0866861E0,4.0169606E0,5.1875067E-1,3.1862063E0,9.972E-1,5.6938715E0,3.7275085E0,7.857226E0,4.0017066E0,0E0,0E0,0E0,0E0,0E0,0E0,0E0,0E0,0E0,0E0,0E0,0E0,0E0,0E0,0E0,0E0,0E0,0E0,0E0,0E0,0E0,0E0,0E0,0E0,0E0,0E0,0E0,0E0,0E0,0E0],"parents":[2147483647,0,0,1,1,2,2,3,3,4,4,6,6,7,7,8,8,9,9,10,10,11,11,13,13,14,14,15,15,16,16,17,17,19,19,20,20,21,21,23,23,24,24,25,25,26,26,27,27,28,28,29,29,30,30,31,31,32,32,33,33,34,34,35,35,36,36],"right_children":[2,4,6,8,10,-1,12,14,16,18,20,22,-1,24,26,28,30,32,-1,34,36,38,-1,40,42,44,46,48,50,52,54,56,58,60,62,64,66,-1,-1,-1,-1,-1,-1,-1,-1,-1,-1,-1,-1,-1,-1,-1,-1,-1,-1,-1,-1,-1,-1,-1,-1,-1,-1,-1,-1,-1,-1],"split_conditions":[2.4835212E0,-1.6415372E0,1.4279778E-1,-1.7902728E0,-2.2077703E0,-1.1357414E-1,4.8281038E-1,2.1201663E-1,-1.0566661E0,2.9486074E0,-9.6886194E-1,2.459735E0,-9.811316E-2,1.8118935E-2,-5.225233E-1,-6.3866544E-1,-1.7071915E-1,-1.5470523E0,-5.944124E-2,-1.0933179E0,-1.476038E0,5.111279E-1,6.950776E-2,-1.5913363E-1,-1.9614575E0,6.29394E-1,2.102328E-1,1.2300866E-1,-1.6587511E0,-7.068997E-1,2.8513116E-1,3.1983128E-1,1.689805E0,2.3846395E-1,6.2260336E-1,-7.4730295E-1,-1.4706098E0,4.5512155E-2,-5.5476397E-2,3.6698543E-2,-4.6922665E-2,1.2009179E-1,-2.2908455E-2,-1.3217506E-1,-1.6556302E-2,5.0655503E-2,-3.5872407E-2,6.422263E-2,-9.39553E-2,-1.0001682E-3,9.230601E-2,-7.932054E-2,7.063849E-2,-2.578461E-2,-1.1852505E-1,9.695893E-2,-6.935226E-2,1.2821001E-1,2.5112763E-2,-5.9189647E-3,5.093518E-2,-2.9233096E-2,-1.2672015E-1,7.758536E-2,-4.766147E-2,3.9322793E-2,5.8731454E-4],"split_indices":[12,2,2,2,7,0,5,8,14,11,9,3,0,7,13,11,1,13,0,9,2,14,0,7,2,11,13,12,3,13,12,14,2,4,4,9,11,0,0,0,0,0,0,0,0,0,0,0,0,0,0,0,0,0,0,0,0,0,0,0,0,0,0,0,0,0,0],"split_type":[0,0,0,0,0,0,0,0,0,0,0,0,0,0,0,0,0,0,0,0,0,0,0,0,0,0,0,0,0,0,0,0,0,0,0,0,0,0,0,0,0,0,0,0,0,0,0,0,0,0,0,0,0,0,0,0,0,0,0,0,0,0,0,0,0,0,0],"sum_hessian":[2.371281E3,2.3621902E3,9.090903E0,1.10638336E2,2.2515518E3,3.0946722E0,5.9962306E0,7.3730255E1,3.6908077E1,9.013841E0,2.2425378E3,4.386286E0,1.6099449E0,4.1849403E1,3.1880854E1,2.6246822E1,1.0661258E1,7.775243E0,1.2385981E0,2.3265182E2,2.0098861E3,2.905962E0,1.4803238E0,2.8111645E1,1.3737757E1,6.2038684E0,2.5676985E1,4.9341145E0,2.1312708E1,7.4235315E0,3.2377257E0,2.6695294E0,5.1057134E0,1.4255226E2,9.009956E1,4.1498146E1,1.968388E3,1.4868561E0,1.419106E0,1.6192734E1,1.1918912E1,7.569282E0,6.168474E0,4.456425E0,1.7474431E0,1.007236E1,1.5604625E1,3.1873932E0,1.7467211E0,2.7063713E0,1.8606337E1,1.4940023E0,5.929529E0,1.742805E0,1.4949207E0,1.4289045E0,1.2406249E0,3.1291723E0,1.9765409E0,1.2301911E2,1.9533144E1,8.6861435E1,3.2381294E0,4.860167E0,3.663798E1,2.6042242E1,1.9423457E3],"tree_param":{"num_deleted":"0","num_feature":"15","num_nodes":"67","size_leaf_vector":"1"}},{"base_weights":[-5.1941845E-4,1.0170003E-1,-1.2958882E-2,1.2072992E-1,-9.0166914E-1,-6.472987E-2,1.4739072E-2,1.8471585E-1,-1.0747176E-1,-1.2766191E-1,1.2226828E-2,-2.4228454E-2,-2.7191028E-1,1.2280778E-1,1.1355693E-2,-2.0097484E-1,2.5604132E-1,2.8073952E-1,-3.2324037E-1,-9.481117E-3,-5.395201E-1,-1.4923778E-1,-6.547337E-1,6.3541436E-1,6.132269E-3,-2.8194115E-1,9.9339634E-2,9.3995136E-1,1.9155006E-1,5.7216334E-1,-6.525789E-1,-7.1023864E-1,3.314984E-2,-5.110894E-1,2.6067009E-3,-6.748751E-2,-1.1607611E0,-2.6075748E-1,5.928459E-1,1.10369906E-1,-7.521046E-1,1.0112733E0,-5.195705E-1,-1.0046924E-2,2.175358E-1,8.122051E-2,-3.8556993E-2,1.6648673E-2,1.1482538E-1,2.2877043E-2,-7.857569E-2,1.2885858E-2,8.48717E-2,-1.1216032E-1,5.232317E-2,-1.3675235E-1,-2.7244699E-3,-8.332327E-2,3.534123E-2,-1.6344266E-2,-1.2859392E-1,2.2717286E-2,-2.548575E-3,9.451946E-2,-4.3661784E-2,-3.1099116E-2,-1.3236469E-1,-5.7521272E-2,-4.161709E-3,-1.789377E-2,1.0091189E-1,-9.148234E-2,1.02897964E-1,-8.22904E-2,6.7322175E-3,1.1977021E-1,1.4503744E-2,1.7116508E-2,-9.7948775E-2,6.5539934E-4,-2.9276822E-2,4.999573E-2,-1.2375084E-3],"categories":[],"categories_nodes":[],"categories_segments":[],"categories_sizes":[],"default_left":[0,0,0,0,0,0,0,0,0,0,0,0,0,0,0,0,0,0,0,0,0,0,0,0,0,0,0,0,0,0,0,0,0,0,0,0,0,0,0,0,0,0,0,0,0,0,0,0,0,0,0,0,0,0,0,0,0,0,0,0,0,0,0,0,0,0,0,0,0,0,0,0,0,0,0,0,0,0,0,0,0,0,0],"id":17,"left_children":[1,3,5,7,9,11,13,15,17,-1,-1,19,21,-1,23,25,27,29,31,33,35,37,39,41,43,45,-1,47,49,51,53,55,57,59,61,63,65,67,69,71,73,75,77,79,81,-1,-1,-1,-1,-1,-1,-1,-1,-1,-1,-1,-1,-1,-1,-1,-1,-1,-1,-1,-1,-1,-1,-1,-1,-1,-1,-1,-1,-1,-1,-1,-1,-1,-1,-1,-1,-1,-1],"loss_changes":[3.0162306E0,5.0227E0,3.03332E0,3.7205336E0,2.0404465E0,6.1796393E0,5.644872E0,5.506842E0,4.792678E0,0E0,0E0,4.689507E0,5.5591574E0,0E0,4.4802866E0,3.327199E0,7.2209253E0,5.9732666E0,5.063881E0,3.649101E0,4.9568977E0,7.8112373E0,2.2387714E0,5.478138E0,4.671715E0,3.747404E0,0E0,2.0972414E0,5.803272E0,1.8794541E0,3.5461955E0,7.8478794E0,5.8383536E0,3.6045876E0,3.7180803E0,4.456878E0,6.059742E-1,5.5665054E0,4.1620355E0,4.839173E0,1.5520668E0,1.2711668E0,1.2673851E0,5.9584694E0,6.3110604E0,0E0,0E0,0E0,0E0,0E0,0E0,0E0,0E0,0E0,0E0,0E0,0E0,0E0,0E0,0E0,0E0,0E0,0E0,0E0,0E0,0E0,0E0,0E0,0E0,0E0,0E0,0E0,0E0,0E0,0E0,0E0,0E0,0E0,0E0,0E0,0E0,0E0,0E0],"parents":[2147483647,0,0,1,1,2,2,3,3,4,4,5,5,6,6,7,7,8,8,11,11,12,12,14,14,15,15,16,16,17,17,18,18,19,19,20,20,21,21,22,22,23,23,24,24,25,25,27,27,28,28,29,29,30,30,31,31,32,32,33,33,34,34,35,35,36,36,37,37,38,38,39,39,40,40,41,41,42,42,43,43,44,44],"right_children":[2,4,6,8,10,12,14,16,18,-1,-1,20,22,-1,24,26,28,30,32,34,36,38,40,42,44,46,-1,48,50,52,54,56,58,60,62,64,66,68,70,72,74,76,78,80,82,-1,-1,-1,-1,-1,-1,-1,-1,-1,-1,-1,-1,-1,-1,-1,-1,-1,-1,-1,-1,-1,-1,-1,-1,-1,-1,-1,-1,-1,-1,-1,-1,-1,-1,-1,-1,-1,-1],"split_conditions":[-1.2720873E0,1.4439195E-1,-1.9894533E-1,1.1055281E0,-6.6369057E-1,-3.4826306E-1,-1.6415372E0,-1.8366066E0,-1.432864E0,-1.2766191E-1,1.2226828E-2,1.2714511E0,-3.387595E-1,1.2280778E-1,-2.9948869E0,2.045401E0,-1.2815481E0,-1.907184E-1,-4.80767E-1,-1.8951167E0,5.684905E-1,-5.3470016E-1,-1.6661382E0,2.045401E0,1.4805956E0,-6.530606E-1,9.9339634E-2,-1.432864E0,2.2932525E0,-1.9782672E0,-1.500012E0,1.9368817E0,-1.4978459E0,1.9368817E0,-1.0784262E0,-5.3698945E-1,-9.774252E-1,5.8948733E-2,-1.1234864E0,-3.330219E-1,-3.8035652E-1,4.8281038E-1,1.7516059E-1,9.731982E-1,2.0283387E0,8.122051E-2,-3.8556993E-2,1.6648673E-2,1.1482538E-1,2.2877043E-2,-7.857569E-2,1.2885858E-2,8.48717E-2,-1.1216032E-1,5.232317E-2,-1.3675235E-1,-2.7244699E-3,-8.332327E-2,3.534123E-2,-1.6344266E-2,-1.2859392E-1,2.2717286E-2,-2.548575E-3,9.451946E-2,-4.3661784E-2,-3.1099116E-2,-1.3236469E-1,-5.7521272E-2,-4.161709E-3,-1.789377E-2,1.0091189E-1,-9.148234E-2,1.02897964E-1,-8.22904E-2,6.7322175E-3,1.1977021E-1,1.4503744E-2,1.7116508E-2,-9.7948775E-2,6.5539934E-4,-2.9276822E-2,4.999573E-2,-1.2375084E-3],"split_indices":[14,5,3,1,2,4,2,2,2,0,0,14,11,0,12,11,4,4,4,5,10,11,2,11,9,11,0,2,7,5,2,1,6,1,13,3,13,0,2,13,14,5,5,9,9,0,0,0,0,0,0,0,0,0,0,0,0,0,0,0,0,0,0,0,0,0,0,0,0,0,0,0,0,0,0,0,0,0,0,0,0,0,0],"split_type":[0,0,0,0,0,0,0,0,0,0,0,0,0,0,0,0,0,0,0,0,0,0,0,0,0,0,0,0,0,0,0,0,0,0,0,0,0,0,0,0,0,0,0,0,0,0,0,0,0,0,0,0,0,0,0,0,0,0,0,0,0,0,0,0,0,0,0,0,0,0,0,0,0,0,0,0,0,0,0,0,0,0,0],"sum_hessian":[2.3700437E3,2.5635E2,2.1136936E3,2.5244186E2,3.9081337E0,7.362368E2,1.3774569E3,1.9730864E2,5.5133213E1,2.679989E0,1.2281448E0,6.167802E2,1.1945657E2,2.823786E0,1.374633E3,3.0509823E1,1.6679883E2,1.9588476E1,3.5544735E1,6.0060956E2,1.6170687E1,9.151971E1,2.7936872E1,1.0408848E1,1.3642242E3,2.9288313E1,1.2215098E0,1.3203621E1,1.535952E2,1.5222339E1,4.366138E0,1.6564621E1,1.8980116E1,1.316159E1,5.8744794E2,9.818789E0,6.3518977E0,8.0126915E1,1.1392789E1,3.1389198E0,2.4797953E1,7.947103E0,2.4617445E0,1.2681243E3,9.609997E1,1.9423819E0,2.7345932E1,3.183175E0,1.0020446E1,1.4869801E2,4.897191E0,6.4112687E0,8.8110695E0,3.1540911E0,1.212047E0,7.930443E0,8.634178E0,4.690239E0,1.4289877E1,9.92123E0,3.2403586E0,6.452886E1,5.2291907E2,2.206051E0,7.612737E0,1.4896585E0,4.862239E0,3.2239716E1,4.7887203E1,4.1915903E0,7.201199E0,1.4853505E0,1.6535695E0,2.2821873E1,1.9760797E0,6.224774E0,1.7223291E0,1.2349083E0,1.2268362E0,1.1987146E3,6.940968E1,4.259809E1,5.3501873E1],"tree_param":{"num_deleted":"0","num_feature":"15","num_nodes":"83","size_leaf_vector":"1"}},{"base_weights":[-5.0900807E-4,9.96609E-3,-1.1776077E-1,6.459073E-3,3.952217E-1,-7.9341754E-2,-8.6098963E-1,8.938626E-3,-5.201006E-1,8.869745E-1,-1.5165843E-1,-2.1869592E-1,1.06775425E-1,-1.0398455E0,-1.6686668E-3,-1.8601579E-3,1.3485274E-1,-8.793379E-1,1.8838792E-1,3.5152707E-2,1.2227031E0,-6.381579E-1,4.822594E-1,-7.549201E-1,-1.4377816E-1,4.7795916E-1,-2.5324183E-2,-1.7786434E-2,-1.2980321E-1,7.096411E-3,-2.4840428E-1,-3.5236266E-1,1.8105906E-1,2.5863225E-2,-1.1730124E0,9.4749175E-2,-7.244295E-2,-7.555463E-2,8.129414E-2,1.3822778E-1,2.3623932E-2,4.178856E-2,-1.0634036E0,7.5934875E-1,-1.93075E-2,2.3398477E-1,-1.1100639E0,5.1352954E-1,-2.4900234E-1,-5.3472024E-1,7.052132E-1,8.237295E-1,-1.2902829E-1,4.1117836E-4,5.7683624E-2,3.750496E-2,-4.2506646E-2,2.925595E-2,-6.042096E-2,2.1419928E-3,3.4310933E-2,-1.4127651E-1,-3.798447E-2,-1.3097596E-1,-3.2072943E-2,1.2192116E-1,-9.490362E-3,8.5548036E-2,-4.2060032E-2,-1.317164E-2,-1.2384857E-1,-3.1509347E-2,8.92427E-2,-6.487351E-2,-1.1298998E-2,-9.903085E-2,-5.142325E-3,-3.2512385E-2,8.1995204E-2,-5.307212E-2,1.22585416E-1,-2.019493E-2,7.9194896E-2],"categories":[],"categories_nodes":[],"categories_segments":[],"categories_sizes":[],"default_left":[0,0,0,0,0,0,0,0,0,0,0,0,0,0,0,0,0,0,0,0,0,0,0,0,0,0,0,0,0,0,0,0,0,0,0,0,0,0,0,0,0,0,0,0,0,0,0,0,0,0,0,0,0,0,0,0,0,0,0,0,0,0,0,0,0,0,0,0,0,0,0,0,0,0,0,0,0,0,0,0,0,0,0],"id":18,"left_children":[1,3,5,7,9,11,13,15,17,19,21,23,25,27,-1,29,31,33,35,37,39,41,43,45,47,49,51,-1,-1,53,55,57,59,-1,61,-1,-1,-1,-1,-1,-1,-1,63,65,-1,67,69,71,73,75,77,79,81,-1,-1,-1,-1,-1,-1,-1,-1,-1,-1,-1,-1,-1,-1,-1,-1,-1,-1,-1,-1,-1,-1,-1,-1,-1,-1,-1,-1,-1,-1],"loss_changes":[2.9115832E0,2.9376998E0,5.483E0,2.821656E0,5.4095182E0,4.8464355E0,1.4103098E0,2.9215407E0,2.743709E0,2.9523697E0,3.4351964E0,4.1765594E0,3.9491072E0,1.5017414E0,0E0,4.3733897E0,3.8845441E0,2.6085382E0,3.618536E0,3.068457E0,8.514309E-1,